{"learner":{"attributes":{"scikit_learn":"{\"_estimator_type\": \"classifier\"}"},"feature_names":["vwap","rsi","macd","signal","avg_vol"],"feature_types":["float","float","float","float","float"],"gradient_booster":{"model":{"gbtree_model_param":{"num_parallel_tree":"1","num_trees":"100"},"iteration_indptr":[0,1,2,3,4,5,6,7,8,9,10,11,12,13,14,15,16,17,18,19,20,21,22,23,24,25,26,27,28,29,30,31,32,33,34,35,36,37,38,39,40,41,42,43,44,45,46,47,48,49,50,51,52,53,54,55,56,57,58,59,60,61,62,63,64,65,66,67,68,69,70,71,72,73,74,75,76,77,78,79,80,81,82,83,84,85,86,87,88,89,90,91,92,93,94,95,96,97,98,99,100],"tree_info":[0,0,0,0,0,0,0,0,0,0,0,0,0,0,0,0,0,0,0,0,0,0,0,0,0,0,0,0,0,0,0,0,0,0,0,0,0,0,0,0,0,0,0,0,0,0,0,0,0,0,0,0,0,0,0,0,0,0,0,0,0,0,0,0,0,0,0,0,0,0,0,0,0,0,0,0,0,0,0,0,0,0,0,0,0,0,0,0,0,0,0,0,0,0,0,0,0,0,0,0],"trees":[{"base_weights":[-6.203943E-8,-8.729867E-2,1.0531243E-1,9.6995336E-1,-1.01687595E-1,1.214555E-1,-3.3058962E-1,1.8838288E-1,4.8953906E-1,-1.20438166E-1,-2.1276906E-2,1.4165099E-2,5.342436E-2,2.6982287E-1,-1.3780935E-1],"categories":[],"categories_nodes":[],"categories_segments":[],"categories_sizes":[],"default_left":[0,0,0,0,0,0,0,0,0,0,0,0,0,0,0],"id":0,"left_children":[1,3,5,7,9,11,13,-1,-1,-1,-1,-1,-1,-1,-1],"loss_changes":[6.374684E1,5.7772232E1,2.2154419E1,1.051923E1,3.4473804E1,1.2734009E1,1.8231863E1,0E0,0E0,0E0,0E0,0E0,0E0,0E0,0E0],"parents":[2147483647,0,0,1,1,2,2,3,3,4,4,5,5,6,6],"right_children":[2,4,6,8,10,12,14,-1,-1,-1,-1,-1,-1,-1,-1],"split_conditions":[2.9176438E-2,4.9926703E2,6.09982E2,4.501184E5,5.2819116E2,6.44052E4,1.97478E4,1.8838288E-1,4.8953906E-1,-1.20438166E-1,-2.1276906E-2,1.4165099E-2,5.342436E-2,2.6982287E-1,-1.3780935E-1],"split_indices":[2,0,0,4,0,4,4,0,0,0,0,0,0,0,0],"split_type":[0,0,0,0,0,0,0,0,0,0,0,0,0,0,0],"sum_hessian":[6.9318027E3,3.790142E3,3.1416604E3,4.9998577E1,3.7401436E3,3.0301636E3,1.11496826E2,3.4249023E1,1.5749551E1,3.469901E2,3.3931533E3,1.3119626E3,1.718201E3,9.999715E0,1.0149711E2],"tree_param":{"num_deleted":"0","num_feature":"5","num_nodes":"15","size_leaf_vector":"1"}},{"base_weights":[1.3258414E-4,-3.3864328E-1,1.9908523E-2,-7.594284E-1,-2.6905438E-1,-4.930712E-2,7.0128776E-2,-6.5915816E-2,-3.4056827E-1,-3.9380128E-3,-1.434924E-1,-1.6371943E-3,-1.4499131E-1,3.695992E-2,-2.0831887E-2],"categories":[],"categories_nodes":[],"categories_segments":[],"categories_sizes":[],"default_left":[0,0,0,0,0,0,0,0,0,0,0,0,0,0,0],"id":1,"left_children":[1,3,5,7,9,11,13,-1,-1,-1,-1,-1,-1,-1,-1],"loss_changes":[4.642171E1,1.0986362E1,2.2760448E1,1.0639088E1,1.7638895E1,5.2396362E1,2.8114117E1,0E0,0E0,0E0,0E0,0E0,0E0,0E0,0E0],"parents":[2147483647,0,0,1,1,2,2,3,3,4,4,5,5,6,6],"right_children":[2,4,6,8,10,12,14,-1,-1,-1,-1,-1,-1,-1,-1],"split_conditions":[2.1963541E1,5.275504E2,5.732477E2,5.1115112E2,5.81217E2,5.686112E2,6.048433E2,-6.5915816E-2,-3.4056827E-1,-3.9380128E-3,-1.434924E-1,-1.6371943E-3,-1.4499131E-1,3.695992E-2,-2.0831887E-2],"split_indices":[1,0,0,0,0,0,0,0,0,0,0,0,0,0,0],"split_type":[0,0,0,0,0,0,0,0,0,0,0,0,0,0,0],"sum_hessian":[6.92701E3,3.8117017E2,6.5458394E3,5.268503E1,3.2848514E2,2.752394E3,3.7934456E3,2.2276712E1,3.040832E1,1.482413E2,1.8024385E2,2.5007393E3,2.5165475E2,2.7484597E3,1.0449857E3],"tree_param":{"num_deleted":"0","num_feature":"5","num_nodes":"15","size_leaf_vector":"1"}},{"base_weights":[-4.3658605E-5,-7.6211706E-2,6.208871E-2,1.026142E0,-8.377512E-2,5.578914E-1,5.506916E-2,4.07014E-1,1.5221009E-1,-7.59684E-2,-1.31947175E-2,-3.5287514E-2,2.7884224E-1,-1.4746334E-1,1.9540977E-2],"categories":[],"categories_nodes":[],"categories_segments":[],"categories_sizes":[],"default_left":[0,0,0,0,0,0,0,0,0,0,0,0,0,0,0],"id":2,"left_children":[1,3,5,7,9,11,13,-1,-1,-1,-1,-1,-1,-1,-1],"loss_changes":[3.2766323E1,2.6019989E1,1.32403E1,2.9595776E0,2.08263E1,1.3443865E1,2.0729038E1,0E0,0E0,0E0,0E0,0E0,0E0,0E0,0E0],"parents":[2147483647,0,0,1,1,2,2,3,3,4,4,5,5,6,6],"right_children":[2,4,6,8,10,12,14,-1,-1,-1,-1,-1,-1,-1,-1],"split_conditions":[4.7661472E1,4.980848E2,1.85721E4,3.653266E5,5.5272675E2,6.03923E2,2.20691E4,4.07014E-1,1.5221009E-1,-7.59684E-2,-1.31947175E-2,-3.5287514E-2,2.7884224E-1,-1.4746334E-1,1.9540977E-2],"split_indices":[1,0,4,4,0,0,4,0,0,0,0,0,0,0,0],"split_type":[0,0,0,0,0,0,0,0,0,0,0,0,0,0,0],"sum_hessian":[6.921679E3,3.1095078E3,3.8121714E3,2.0271698E1,3.0892363E3,5.2123478E1,3.7600479E3,1.1395248E1,8.876451E0,5.8646735E2,2.5027688E3,1.8739523E1,3.3383957E1,6.7134544E1,3.6929133E3],"tree_param":{"num_deleted":"0","num_feature":"5","num_nodes":"15","size_leaf_vector":"1"}},{"base_weights":[8.237215E-5,-2.1736944E-1,1.2673761E-2,-6.540137E-1,-1.5470605E-1,7.4873203E-1,9.515771E-3,-3.2006025E-1,1.9715598E-1,-1.4299777E-1,-2.1980513E-2,4.697593E-2,3.9346948E-1,1.690476E-1,1.579167E-3],"categories":[],"categories_nodes":[],"categories_segments":[],"categories_sizes":[],"default_left":[0,0,0,0,0,0,0,0,0,0,0,0,0,0,0],"id":3,"left_children":[1,3,5,7,9,11,13,-1,-1,-1,-1,-1,-1,-1,-1],"loss_changes":[1.8939877E1,1.0258503E1,1.5191935E1,2.625605E1,8.68067E0,9.10015E0,1.5335224E1,0E0,0E0,0E0,0E0,0E0,0E0,0E0,0E0],"parents":[2147483647,0,0,1,1,2,2,3,3,4,4,5,5,6,6],"right_children":[2,4,6,8,10,12,14,-1,-1,-1,-1,-1,-1,-1,-1],"split_conditions":[2.1963541E1,3.87809E4,1.575585E4,6.0988513E2,5.3662103E2,6.040855E2,4.980848E2,-3.2006025E-1,1.9715598E-1,-1.4299777E-1,-2.1980513E-2,4.697593E-2,3.9346948E-1,1.690476E-1,1.579167E-3],"split_indices":[1,4,4,0,0,0,0,0,0,0,0,0,0,0,0],"split_type":[0,0,0,0,0,0,0,0,0,0,0,0,0,0,0],"sum_hessian":[6.915356E3,3.7762106E2,6.537735E3,4.620731E1,3.3141376E2,2.692112E1,6.5108135E3,3.5283913E1,1.0923398E1,6.592699E1,2.654868E2,1.3741825E1,1.3179296E1,4.85894E1,6.462224E3],"tree_param":{"num_deleted":"0","num_feature":"5","num_nodes":"15","size_leaf_vector":"1"}},{"base_weights":[9.910201E-5,-2.8145846E-2,8.818624E-2,5.108096E-1,-3.3459183E-2,3.0761711E-2,3.7477982E-1,3.7020516E-1,7.851843E-2,-3.3341397E-2,3.4169366E-3,3.4961846E-2,-7.324212E-2,9.1594085E-2,4.1122532E-1],"categories":[],"categories_nodes":[],"categories_segments":[],"categories_sizes":[],"default_left":[0,0,0,0,0,0,0,0,0,0,0,0,0,0,0],"id":4,"left_children":[1,3,5,7,9,11,13,-1,-1,-1,-1,-1,-1,-1,-1],"loss_changes":[1.7194878E1,1.5002864E1,2.7603844E1,8.890839E0,1.8057707E1,3.3017006E1,1.8953957E1,0E0,0E0,0E0,0E0,0E0,0E0,0E0,0E0],"parents":[2147483647,0,0,1,1,2,2,3,3,4,4,5,5,6,6],"right_children":[2,4,6,8,10,12,14,-1,-1,-1,-1,-1,-1,-1,-1],"split_conditions":[1.8323265E-1,4.9926703E2,6.009935E2,-1.4416755E0,5.718915E2,5.828809E2,2.0691516E5,3.7020516E-1,7.851843E-2,-3.3341397E-2,3.4169366E-3,3.4961846E-2,-7.324212E-2,9.1594085E-2,4.1122532E-1],"split_indices":[2,0,0,2,0,0,4,0,0,0,0,0,0,0,0],"split_type":[0,0,0,0,0,0,0,0,0,0,0,0,0,0,0],"sum_hessian":[6.9090806E3,5.2320996E3,1.6769808E3,5.014876E1,5.181951E3,1.3979767E3,2.7900415E2,1.1834127E1,3.8314636E1,1.8962139E3,3.285737E3,1.0659456E3,3.3203113E2,2.6203452E2,1.696963E1],"tree_param":{"num_deleted":"0","num_feature":"5","num_nodes":"15","size_leaf_vector":"1"}},{"base_weights":[2.71185E-4,-2.5120664E-3,6.736516E-1,1.8295167E-2,-9.281358E-2,-6.405249E-1,1.0905743E0,1.4938716E-2,-3.0047778E-2,-1.09204285E-1,6.0290876E-3,7.607347E-2,-4.147454E-1,5.065355E-1,1.9935729E-1],"categories":[],"categories_nodes":[],"categories_segments":[],"categories_sizes":[],"default_left":[0,0,0,0,0,0,0,0,0,0,0,0,0,0,0],"id":5,"left_children":[1,3,5,7,9,11,13,-1,-1,-1,-1,-1,-1,-1,-1],"loss_changes":[1.2938459E1,1.2919654E1,1.6268211E1,2.0857845E1,3.943773E1,5.3086624E0,4.4673214E0,0E0,0E0,0E0,0E0,0E0,0E0,0E0,0E0],"parents":[2147483647,0,0,1,1,2,2,3,3,4,4,5,5,6,6],"right_children":[2,4,6,8,10,12,14,-1,-1,-1,-1,-1,-1,-1,-1],"split_conditions":[2.22185E0,1.4526225E5,5.121636E2,6.042275E2,1.840098E5,8.416803E5,6.261741E1,1.4938716E-2,-3.0047778E-2,-1.09204285E-1,6.0290876E-3,7.607347E-2,-4.147454E-1,5.065355E-1,1.9935729E-1],"split_indices":[2,4,0,0,4,4,1,0,0,0,0,0,0,0,0],"split_type":[0,0,0,0,0,0,0,0,0,0,0,0,0,0,0],"sum_hessian":[6.9016025E3,6.874186E3,2.741648E1,5.5875117E3,1.2866744E3,6.473893E0,2.0942587E1,4.414219E3,1.1732924E3,3.775677E2,9.091067E2,3.2344413E0,3.239452E0,7.481184E0,1.3461402E1],"tree_param":{"num_deleted":"0","num_feature":"5","num_nodes":"15","size_leaf_vector":"1"}},{"base_weights":[2.387437E-4,5.6950915E-1,-1.9909162E-3,9.585713E-2,1.0546296E0,-4.2695474E-2,2.9198188E-2,1.918358E-1,-2.604759E-1,3.6112985E-1,1.5147413E-1,-2.3809507E-2,1.2716095E-2,1.6559383E-2,-2.9513143E-2],"categories":[],"categories_nodes":[],"categories_segments":[],"categories_sizes":[],"default_left":[0,0,0,0,0,0,0,0,0,0,0,0,0,0,0],"id":6,"left_children":[1,3,5,7,9,11,13,-1,-1,-1,-1,-1,-1,-1,-1],"loss_changes":[8.758129E0,6.0845556E0,8.727123E0,8.270288E0,4.7429848E-1,9.3075905E0,1.2915178E1,0E0,0E0,0E0,0E0,0E0,0E0,0E0,0E0],"parents":[2147483647,0,0,1,1,2,2,3,3,4,4,5,5,6,6],"right_children":[2,4,6,8,10,12,14,-1,-1,-1,-1,-1,-1,-1,-1],"split_conditions":[1.575585E4,6.040855E2,4.6976215E1,2.4538478E-2,6.2516354E-2,5.99275E2,6.047115E2,1.918358E-1,-2.604759E-1,3.6112985E-1,1.5147413E-1,-2.3809507E-2,1.2716095E-2,1.6559383E-2,-2.9513143E-2],"split_indices":[4,0,1,2,3,0,0,0,0,0,0,0,0,0,0],"split_type":[0,0,0,0,0,0,0,0,0,0,0,0,0,0,0],"sum_hessian":[6.898186E3,2.5920086E1,6.872266E3,1.3721025E1,1.219906E1,2.9811853E3,3.8910808E3,8.989312E0,4.7317133E0,8.659863E0,3.5391965E0,2.0833518E3,8.978333E2,3.232805E3,6.582759E2],"tree_param":{"num_deleted":"0","num_feature":"5","num_nodes":"15","size_leaf_vector":"1"}},{"base_weights":[2.569861E-4,-2.5102576E-2,4.4596154E-2,-8.961621E-3,-8.711635E-1,9.755373E-1,3.337976E-2,9.562336E-4,-8.1694074E-2,-3.263533E-1,2.135081E-1,-3.3220246E-1,4.237855E-1,1.09887965E-1,7.1504404E-4],"categories":[],"categories_nodes":[],"categories_segments":[],"categories_sizes":[],"default_left":[0,0,0,0,0,0,0,0,0,0,0,0,0,0,0],"id":7,"left_children":[1,3,5,7,9,11,13,-1,-1,-1,-1,-1,-1,-1,-1],"loss_changes":[7.7527804E0,5.9891586E1,2.6162546E1,1.3775043E1,2.893333E1,2.8721441E1,2.5588858E1,0E0,0E0,0E0,0E0,0E0,0E0,0E0,0E0],"parents":[2147483647,0,0,1,1,2,2,3,3,4,4,5,5,6,6],"right_children":[2,4,6,8,10,12,14,-1,-1,-1,-1,-1,-1,-1,-1],"split_conditions":[5.960448E2,5.945586E2,-6.695516E-1,5.9297174E2,1.987226E5,5.9815393E2,5.9835693E2,9.562336E-4,-8.1694074E-2,-3.263533E-1,2.135081E-1,-3.3220246E-1,4.237855E-1,1.09887965E-1,7.1504404E-4],"split_indices":[0,0,2,0,4,0,0,0,0,0,0,0,0,0,0],"split_type":[0,0,0,0,0,0,0,0,0,0,0,0,0,0,0],"sum_hessian":[6.892908E3,4.3852314E3,2.507677E3,4.3041284E3,8.1102585E1,2.8830393E1,2.4788467E3,4.115269E3,1.8885948E2,7.161217E1,9.490415E0,4.7345824E0,2.409581E1,2.1021622E2,2.2686304E3],"tree_param":{"num_deleted":"0","num_feature":"5","num_nodes":"15","size_leaf_vector":"1"}},{"base_weights":[1.6832126E-4,-1.438772E-1,8.411838E-3,-1.1858457E-2,-2.8886387E-1,2.4458605E-1,1.3798936E-3,-2.7186545E-2,2.3219486E-1,-2.71084E-1,-3.6060628E-2,8.383546E-2,-2.4543968E-1,-1.3443963E-2,1.3120264E-2],"categories":[],"categories_nodes":[],"categories_segments":[],"categories_sizes":[],"default_left":[0,0,0,0,0,0,0,0,0,0,0,0,0,0,0],"id":8,"left_children":[1,3,5,7,9,11,13,-1,-1,-1,-1,-1,-1,-1,-1],"loss_changes":[8.182971E0,7.1367087E0,1.0824875E1,1.22195425E1,1.832032E1,7.211438E0,1.2387938E1,0E0,0E0,0E0,0E0,0E0,0E0,0E0,0E0],"parents":[2147483647,0,0,1,1,2,2,3,3,4,4,5,5,6,6],"right_children":[2,4,6,8,10,12,14,-1,-1,-1,-1,-1,-1,-1,-1],"split_conditions":[2.1963541E1,5.81217E2,2.5626337E1,5.7722174E2,5.9256366E2,6.1033014E2,5.786953E2,-2.7186545E-2,2.3219486E-1,-2.71084E-1,-3.6060628E-2,8.383546E-2,-2.4543968E-1,-1.3443963E-2,1.3120264E-2],"split_indices":[1,0,1,0,0,0,0,0,0,0,0,0,0,0,0],"split_type":[0,0,0,0,0,0,0,0,0,0,0,0,0,0,0],"sum_hessian":[6.8892427E3,3.7202908E2,6.5172134E3,1.9528899E2,1.7674011E2,1.8745877E2,6.329755E3,1.7830272E2,1.6986258E1,3.71125E1,1.3962761E2,1.8221765E2,5.2411256E0,3.027643E3,3.3021118E3],"tree_param":{"num_deleted":"0","num_feature":"5","num_nodes":"15","size_leaf_vector":"1"}},{"base_weights":[4.3602126E-5,1.1343724E-2,-9.954567E-2,2.5576479E-3,2.5437123E-1,-1.3980806E-1,5.535638E-1,3.4055894E-3,-1.1256841E-1,-1.0103606E-1,1.2656274E-1,-2.610588E-1,-3.2677796E-2,2.1518698E-1,-7.274213E-2],"categories":[],"categories_nodes":[],"categories_segments":[],"categories_sizes":[],"default_left":[0,0,0,0,0,0,0,0,0,0,0,0,0,0,0],"id":9,"left_children":[1,3,5,7,9,11,13,-1,-1,-1,-1,-1,-1,-1,-1],"loss_changes":[7.7508397E0,1.32070055E1,1.8533144E1,1.9841112E1,2.1511908E1,1.4834883E1,5.511875E0,0E0,0E0,0E0,0E0,0E0,0E0,0E0,0E0],"parents":[2147483647,0,0,1,1,2,2,3,3,4,4,5,5,6,6],"right_children":[2,4,6,8,10,12,14,-1,-1,-1,-1,-1,-1,-1,-1],"split_conditions":[6.072185E2,6.05829E2,2.154693E-1,6.050076E2,-8.9846216E-2,6.073194E2,6.09982E2,3.4055894E-3,-1.1256841E-1,-1.0103606E-1,1.2656274E-1,-2.610588E-1,-3.2677796E-2,2.1518698E-1,-7.274213E-2],"split_indices":[0,0,3,0,3,0,0,0,0,0,0,0,0,0,0],"split_type":[0,0,0,0,0,0,0,0,0,0,0,0,0,0,0],"sum_hessian":[6.8853613E3,6.1845083E3,7.008531E2,5.9696987E3,2.1480959E2,6.608966E2,3.995651E1,5.834842E3,1.3485692E2,4.7204517E1,1.6760507E2,2.5707756E1,6.3518884E2,3.3222374E1,6.734135E0],"tree_param":{"num_deleted":"0","num_feature":"5","num_nodes":"15","size_leaf_vector":"1"}},{"base_weights":[-3.4759842E-6,-2.0017445E-3,4.9950993E-1,1.3174058E-2,-6.630641E-2,4.1945451E-1,4.5963388E-2,1.19233295E-1,2.3407617E-3,-3.3343736E-2,1.4515601E-1,3.660766E-1,-1.4662975E-1],"categories":[],"categories_nodes":[],"categories_segments":[],"categories_sizes":[],"default_left":[0,0,0,0,0,0,0,0,0,0,0,0,0],"id":10,"left_children":[1,3,5,7,9,-1,11,-1,-1,-1,-1,-1,-1],"loss_changes":[6.8709087E0,6.6916E0,1.1114886E1,1.1448348E1,3.235163E1,0E0,1.2691597E1,0E0,0E0,0E0,0E0,0E0,0E0],"parents":[2147483647,0,0,1,1,2,2,3,3,4,4,6,6],"right_children":[2,4,6,8,10,-1,12,-1,-1,-1,-1,-1,-1],"split_conditions":[2.22185E0,1.433862E5,5.552759E5,5.121636E2,6.0217847E2,4.1945451E-1,5.96418E1,1.19233295E-1,2.3407617E-3,-3.3343736E-2,1.4515601E-1,3.660766E-1,-1.4662975E-1],"split_indices":[2,4,4,0,0,0,1,0,0,0,0,0,0],"split_type":[0,0,0,0,0,0,0,0,0,0,0,0,0],"sum_hessian":[6.8815586E3,6.8551313E3,2.642748E1,5.546873E3,1.3082584E3,8.165441E0,1.8262041E1,7.5461784E1,5.471411E3,1.2104054E3,9.785301E1,5.3128195E0,1.2949222E1],"tree_param":{"num_deleted":"0","num_feature":"5","num_nodes":"13","size_leaf_vector":"1"}},{"base_weights":[1.7543769E-4,-1.0037876E-2,1.0485302E-1,-1.6412064E-1,1.3399366E-2,3.386194E-2,8.4604055E-1,-3.1787038E-2,-1.8790022E-1,4.752307E-2,-2.5112962E-3,1.1312786E-1,-3.478401E-2,3.1967235E-1,-4.287778E-2],"categories":[],"categories_nodes":[],"categories_segments":[],"categories_sizes":[],"default_left":[0,0,0,0,0,0,0,0,0,0,0,0,0,0,0],"id":11,"left_children":[1,3,5,7,9,11,13,-1,-1,-1,-1,-1,-1,-1,-1],"loss_changes":[7.354962E0,2.2637684E1,3.215037E1,2.2183311E1,1.7179455E1,2.8794569E1,1.1749081E1,0E0,0E0,0E0,0E0,0E0,0E0,0E0,0E0],"parents":[2147483647,0,0,1,1,2,2,3,3,4,4,5,5,6,6],"right_children":[2,4,6,8,10,12,14,-1,-1,-1,-1,-1,-1,-1,-1],"split_conditions":[2.3246895E5,5.4357153E2,8.023265E1,5.41237E2,5.610321E2,5.170829E2,5.552759E5,-3.1787038E-2,-1.8790022E-1,4.752307E-2,-2.5112962E-3,1.1312786E-1,-3.478401E-2,3.1967235E-1,-4.287778E-2],"split_indices":[4,0,1,0,0,0,4,0,0,0,0,0,0,0,0],"split_type":[0,0,0,0,0,0,0,0,0,0,0,0,0,0,0],"sum_hessian":[6.877566E3,6.2670034E3,6.1056274E2,8.266144E2,5.440389E3,5.581488E2,5.2413914E1,7.353135E2,9.1300896E1,7.093278E2,4.731061E3,1.6913092E2,3.890179E2,4.282911E1,9.584802E0],"tree_param":{"num_deleted":"0","num_feature":"5","num_nodes":"15","size_leaf_vector":"1"}},{"base_weights":[1.9222246E-4,4.6037424E-1,-1.4887681E-3,3.8524878E-1,8.857721E-2,4.3862778E-1,-3.1351608E-3,-6.427692E-1,2.25405E-1,-1.208827E-1,1.9716354E-1,1.8803339E-3,-2.4852147E-2],"categories":[],"categories_nodes":[],"categories_segments":[],"categories_sizes":[],"default_left":[0,0,0,0,0,0,0,0,0,0,0,0,0],"id":12,"left_children":[1,3,5,-1,7,9,11,-1,-1,-1,-1,-1,-1],"loss_changes":[5.3173704E0,7.5488434E0,4.964175E0,0E0,2.8688755E1,4.961588E0,5.1151977E0,0E0,0E0,0E0,0E0,0E0,0E0],"parents":[2147483647,0,0,1,1,2,2,4,4,5,5,6,6],"right_children":[2,4,6,-1,8,10,12,-1,-1,-1,-1,-1,-1],"split_conditions":[4.9667596E2,2.589497E5,1.575585E4,3.8524878E-1,4.501184E5,7.986967E-3,6.071142E2,-6.427692E-1,2.25405E-1,-1.208827E-1,1.9716354E-1,1.8803339E-3,-2.4852147E-2],"split_indices":[0,4,4,0,4,3,0,0,0,0,0,0,0],"split_type":[0,0,0,0,0,0,0,0,0,0,0,0,0],"sum_hessian":[6.871995E3,2.4018085E1,6.847977E3,6.7059097E0,1.7312176E1,2.4532335E1,6.8234443E3,3.4535396E0,1.3858637E1,4.884213E0,1.9648123E1,6.1042407E3,7.192038E2],"tree_param":{"num_deleted":"0","num_feature":"5","num_nodes":"13","size_leaf_vector":"1"}},{"base_weights":[2.0858989E-4,-2.8138673E-2,2.6401186E-2,-5.5203304E-2,1.3156602E-1,4.1385943E-1,1.6801499E-3,-4.8291897E-3,-7.3801115E-2,3.1169703E-2,2.5931624E-1,1.508778E-1,-2.42526E-1,-2.7866292E-1,3.15659E-3],"categories":[],"categories_nodes":[],"categories_segments":[],"categories_sizes":[],"default_left":[0,0,0,0,0,0,0,0,0,0,0,0,0,0,0],"id":13,"left_children":[1,3,5,7,9,11,13,-1,-1,-1,-1,-1,-1,-1,-1],"loss_changes":[5.101278E0,1.42690525E1,3.420335E1,2.105309E1,9.610368E0,2.3722004E1,2.7637093E1,0E0,0E0,0E0,0E0,0E0,0E0,0E0,0E0],"parents":[2147483647,0,0,1,1,2,2,3,3,4,4,5,5,6,6],"right_children":[2,4,6,8,10,12,14,-1,-1,-1,-1,-1,-1,-1,-1],"split_conditions":[5.786953E2,2.3246895E5,5.818117E2,1.4526225E5,8.577596E1,2.589497E5,-9.568217E-1,-4.8291897E-3,-7.3801115E-2,3.1169703E-2,2.5931624E-1,1.508778E-1,-2.42526E-1,-2.7866292E-1,3.15659E-3],"split_indices":[0,4,0,4,1,4,3,0,0,0,0,0,0,0,0],"split_type":[0,0,0,0,0,0,0,0,0,0,0,0,0,0,0],"sum_hessian":[6.868514E3,3.2985466E3,3.5699673E3,2.8211157E3,4.774309E2,2.1316977E2,3.3567976E3,2.3421572E3,4.789587E2,4.6116193E2,1.626897E1,1.9923984E2,1.3929923E1,3.06155E1,3.3261821E3],"tree_param":{"num_deleted":"0","num_feature":"5","num_nodes":"15","size_leaf_vector":"1"}},{"base_weights":[1.3900276E-4,2.181252E-1,-2.3372758E-3,9.4779825E-1,-3.7018362E-2,-4.4140756E-1,1.7138304E-3,3.7090632E-1,-1.0356566E-1,-3.6959868E-2,4.0682527E-1,-1.9048366E-1,2.2331989E-1,1.9173383E-3,-7.00567E-2],"categories":[],"categories_nodes":[],"categories_segments":[],"categories_sizes":[],"default_left":[0,0,0,0,0,0,0,0,0,0,0,0,0,0,0],"id":14,"left_children":[1,3,5,7,9,11,13,-1,-1,-1,-1,-1,-1,-1,-1],"loss_changes":[3.7043397E0,1.4385355E1,1.2070217E1,7.891777E0,7.139324E0,1.4710306E1,7.4001827E0,0E0,0E0,0E0,0E0,0E0,0E0,0E0,0E0],"parents":[2147483647,0,0,1,1,2,2,3,3,4,4,5,5,6,6],"right_children":[2,4,6,8,10,12,14,-1,-1,-1,-1,-1,-1,-1,-1],"split_conditions":[-1.4416755E0,5.170829E2,-1.1521763E0,-1.2343029E0,6.013015E2,4.1924484E5,3.8467675E5,3.7090632E-1,-1.0356566E-1,-3.6959868E-2,4.0682527E-1,-1.9048366E-1,2.2331989E-1,1.9173383E-3,-7.00567E-2],"split_indices":[2,0,3,3,0,4,4,0,0,0,0,0,0,0,0],"split_type":[0,0,0,0,0,0,0,0,0,0,0,0,0,0,0],"sum_hessian":[6.8605547E3,7.608096E1,6.784474E3,1.9007511E1,5.7073452E1,6.1038055E1,6.723436E3,1.557544E1,3.4320705E0,5.4606884E1,2.466569E0,5.287308E1,8.164975E0,6.593311E3,1.301247E2],"tree_param":{"num_deleted":"0","num_feature":"5","num_nodes":"15","size_leaf_vector":"1"}},{"base_weights":[2.1639795E-4,-7.884814E-3,6.516467E-2,5.387095E-3,-1.4683034E-1,2.812387E-2,8.125527E-1,3.2667816E-3,-1.0851639E-1,-2.4144123E-1,-3.0018447E-2,4.9251784E-2,-3.0640367E-2,3.0435053E-1,-3.160825E-1],"categories":[],"categories_nodes":[],"categories_segments":[],"categories_sizes":[],"default_left":[0,0,0,0,0,0,0,0,0,0,0,0,0,0,0],"id":15,"left_children":[1,3,5,7,9,11,13,-1,-1,-1,-1,-1,-1,-1,-1],"loss_changes":[3.6089656E0,1.1246717E1,2.1035496E1,1.1250027E1,1.628313E1,1.2878841E1,1.4592159E1,0E0,0E0,0E0,0E0,0E0,0E0,0E0,0E0],"parents":[2147483647,0,0,1,1,2,2,3,3,4,4,5,5,6,6],"right_children":[2,4,6,8,10,12,14,-1,-1,-1,-1,-1,-1,-1,-1],"split_conditions":[2.02276E5,1.4526225E5,6.0217847E2,8.48125E1,5.0753644E2,5.348031E2,6.0988513E2,3.2667816E-3,-1.0851639E-1,-2.4144123E-1,-3.0018447E-2,4.9251784E-2,-3.0640367E-2,3.0435053E-1,-3.160825E-1],"split_indices":[4,4,0,1,0,0,0,0,0,0,0,0,0,0,0],"split_type":[0,0,0,0,0,0,0,0,0,0,0,0,0,0,0],"sum_hessian":[6.857092E3,6.097419E3,7.596726E2,5.5666597E3,5.307594E2,7.247894E2,3.4883175E1,5.485415E3,8.12444E1,3.4147182E1,4.9661224E2,3.5438782E2,3.704016E2,3.1888672E1,2.9945035E0],"tree_param":{"num_deleted":"0","num_feature":"5","num_nodes":"15","size_leaf_vector":"1"}},{"base_weights":[1.4055551E-4,-2.3367107E-3,2.0541942E-1,2.5352535E-3,-1.1887109E0,1.0198464E0,-2.0900601E-1,-5.4912444E-2,1.8479583E-3,-1.5190892E-1,-4.177688E-1,4.658335E-1,-3.229918E-1,3.4422113E-3,-4.7228432E-1],"categories":[],"categories_nodes":[],"categories_segments":[],"categories_sizes":[],"default_left":[0,0,0,0,0,0,0,0,0,0,0,0,0,0,0],"id":16,"left_children":[1,3,5,7,9,11,13,-1,-1,-1,-1,-1,-1,-1,-1],"loss_changes":[3.4852834E0,3.914483E1,2.7795967E1,4.5382867E0,3.1476135E0,3.265469E1,1.657142E1,0E0,0E0,0E0,0E0,0E0,0E0,0E0,0E0],"parents":[2147483647,0,0,1,1,2,2,3,3,4,4,5,5,6,6],"right_children":[2,4,6,8,10,12,14,-1,-1,-1,-1,-1,-1,-1,-1],"split_conditions":[6.106116E2,6.1046234E2,6.1144366E2,1.507769E1,3.774971E1,3.805865E4,8.40219E4,-5.4912444E-2,1.8479583E-3,-1.5190892E-1,-4.177688E-1,4.658335E-1,-3.229918E-1,3.4422113E-3,-4.7228432E-1],"split_indices":[0,0,0,1,1,4,4,0,0,0,0,0,0,0,0],"split_type":[0,0,0,0,0,0,0,0,0,0,0,0,0,0,0],"sum_hessian":[6.851695E3,6.7709727E3,8.072219E1,6.7442744E3,2.6698174E1,2.6730555E1,5.3991634E1,1.2825453E2,6.61602E3,6.9427733E0,1.97554E1,2.151957E1,5.210985E0,4.7338478E1,6.653157E0],"tree_param":{"num_deleted":"0","num_feature":"5","num_nodes":"15","size_leaf_vector":"1"}},{"base_weights":[-1.0634253E-4,2.0923772E-1,-2.5113302E-3,1.3729582E0,1.01943E-1,-2.0393561E-1,7.5320585E-4,6.5273635E-2,4.8198703E-1,6.447218E-2,-2.3938356E-1,1.2161652E-1,-1.4208873E-1,-7.3246523E-3,9.357658E-3],"categories":[],"categories_nodes":[],"categories_segments":[],"categories_sizes":[],"default_left":[0,0,0,0,0,0,0,0,0,0,0,0,0,0,0],"id":17,"left_children":[1,3,5,7,9,11,13,-1,-1,-1,-1,-1,-1,-1,-1],"loss_changes":[3.4486601E0,9.573976E0,4.4530907E0,1.401804E0,7.5222487E0,1.7941013E1,5.1068354E0,0E0,0E0,0E0,0E0,0E0,0E0,0E0,0E0],"parents":[2147483647,0,0,1,1,2,2,3,3,4,4,5,5,6,6],"right_children":[2,4,6,8,10,12,14,-1,-1,-1,-1,-1,-1,-1,-1],"split_conditions":[1.85721E4,-6.964043E-2,2.20691E4,-9.763858E-2,1.2314036E-1,-9.379795E-3,2.9176438E-2,6.5273635E-2,4.8198703E-1,6.447218E-2,-2.3938356E-1,1.2161652E-1,-1.4208873E-1,-7.3246523E-3,9.357658E-3],"split_indices":[4,3,4,2,3,3,2,0,0,0,0,0,0,0,0],"split_type":[0,0,0,0,0,0,0,0,0,0,0,0,0,0,0],"sum_hessian":[6.847741E3,7.679798E1,6.7709434E3,5.4872317E0,7.1310745E1,1.0700789E2,6.6639355E3,1.2479221E0,4.23931E0,6.403369E1,7.2770576E0,3.267698E1,7.433091E1,3.6478665E3,3.0160688E3],"tree_param":{"num_deleted":"0","num_feature":"5","num_nodes":"15","size_leaf_vector":"1"}},{"base_weights":[-1.7069076E-5,3.8496464E-2,-1.738261E-2,2.2975309E-1,-1.5664121E-2,-3.646991E-1,-1.0713961E-2,2.1919896E-1,1.9743484E-2,-2.4499798E-2,4.6060313E-2,1.4126441E-1,-1.5584469E-1,-2.3741286E-2,7.6587508E-3],"categories":[],"categories_nodes":[],"categories_segments":[],"categories_sizes":[],"default_left":[0,0,0,0,0,0,0,0,0,0,0,0,0,0,0],"id":18,"left_children":[1,3,5,7,9,11,13,-1,-1,-1,-1,-1,-1,-1,-1],"loss_changes":[4.578764E0,2.2042278E1,1.092493E1,3.851499E1,1.8539112E1,1.1737457E1,1.14856615E1,0E0,0E0,0E0,0E0,0E0,0E0,0E0,0E0],"parents":[2147483647,0,0,1,1,2,2,3,3,4,4,5,5,6,6],"right_children":[2,4,6,8,10,12,14,-1,-1,-1,-1,-1,-1,-1,-1],"split_conditions":[-1.2289929E-1,5.94124E4,5.0753644E2,5.6840955E2,1.840098E5,1.1714945E5,2.9176438E-2,2.1919896E-1,1.9743484E-2,-2.4499798E-2,4.6060313E-2,1.4126441E-1,-1.5584469E-1,-2.3741286E-2,7.6587508E-3],"split_indices":[2,4,0,0,4,4,2,0,0,0,0,0,0,0,0],"split_type":[0,0,0,0,0,0,0,0,0,0,0,0,0,0,0],"sum_hessian":[6.844152E3,2.126579E3,4.7175728E3,4.6859457E2,1.6579845E3,8.78619E1,4.629711E3,1.1469532E2,3.5389926E2,1.1930934E3,4.6489105E2,1.3412692E1,7.444921E1,1.6027274E3,3.0269834E3],"tree_param":{"num_deleted":"0","num_feature":"5","num_nodes":"15","size_leaf_vector":"1"}},{"base_weights":[2.7954877E-5,-1.5327976E-2,3.439233E-2,-7.7046803E-3,-6.6489875E-1,7.870737E-1,1.4336961E-2,-1.231862E-1,-1.0119943E-3,2.3424104E-1,-2.8095737E-1,-1.0454174E-1,3.2847095E-1,2.6586723E-1,-5.038711E-4],"categories":[],"categories_nodes":[],"categories_segments":[],"categories_sizes":[],"default_left":[0,0,0,0,0,0,0,0,0,0,0,0,0,0,0],"id":19,"left_children":[1,3,5,7,9,11,13,-1,-1,-1,-1,-1,-1,-1,-1],"loss_changes":[3.6116033E0,2.3418789E1,3.1896711E1,8.159859E0,2.2273756E1,1.955167E1,2.876758E1,0E0,0E0,0E0,0E0,0E0,0E0,0E0,0E0],"parents":[2147483647,0,0,1,1,2,2,3,3,4,4,5,5,6,6],"right_children":[2,4,6,8,10,12,14,-1,-1,-1,-1,-1,-1,-1,-1],"split_conditions":[5.9963086E2,5.9897363E2,6.001374E2,2.91483E4,-1.5187126E-1,4.32216E4,-4.9890637E-1,-1.231862E-1,-1.0119943E-3,2.3424104E-1,-2.8095737E-1,-1.0454174E-1,3.2847095E-1,2.6586723E-1,-5.038711E-4],"split_indices":[0,0,0,4,3,4,2,0,0,0,0,0,0,0,0],"split_type":[0,0,0,0,0,0,0,0,0,0,0,0,0,0,0],"sum_hessian":[6.842086E3,4.729316E3,2.11277E3,4.675457E3,5.385883E1,5.384157E1,2.0589285E3,4.872917E1,4.626728E3,8.222232E0,4.5636597E1,1.1454661E1,4.238691E1,3.61601E1,2.0227683E3],"tree_param":{"num_deleted":"0","num_feature":"5","num_nodes":"15","size_leaf_vector":"1"}},{"base_weights":[1.1437261E-4,2.6538292E-1,-1.6860147E-3,-4.9270395E-2,8.048537E-1,-7.130068E-2,7.139647E-3,1.2044246E-1,-5.050624E-1,3.4815374E-1,9.674766E-2,-3.6382672E-1,-1.5973452E-2,-8.25863E-2,3.4475147E-3],"categories":[],"categories_nodes":[],"categories_segments":[],"categories_sizes":[],"default_left":[0,0,0,0,0,0,0,0,0,0,0,0,0,0,0],"id":20,"left_children":[1,3,5,7,9,11,13,-1,-1,-1,-1,-1,-1,-1,-1],"loss_changes":[3.266942E0,7.867325E0,4.175006E0,2.2825336E1,2.550044E0,1.5693105E1,7.4160147E0,0E0,0E0,0E0,0E0,0E0,0E0,0E0,0E0],"parents":[2147483647,0,0,1,1,2,2,3,3,4,4,5,5,6,6],"right_children":[2,4,6,8,10,12,14,-1,-1,-1,-1,-1,-1,-1,-1],"split_conditions":[4.980848E2,4.501184E5,-4.0835562E-1,3.653266E5,6.261741E1,4.857195E4,5.0753644E2,1.2044246E-1,-5.050624E-1,3.4815374E-1,9.674766E-2,-3.6382672E-1,-1.5973452E-2,-8.25863E-2,3.4475147E-3],"split_indices":[0,4,2,4,1,4,0,0,0,0,0,0,0,0,0],"split_type":[0,0,0,0,0,0,0,0,0,0,0,0,0,0,0],"sum_hessian":[6.838593E3,4.511395E1,6.793479E3,2.9068209E1,1.604574E1,7.635673E2,6.0299116E3,2.3375418E1,5.692791E0,8.426641E0,7.6190987E0,1.08598795E1,7.5270746E2,9.056317E1,5.939348E3],"tree_param":{"num_deleted":"0","num_feature":"5","num_nodes":"15","size_leaf_vector":"1"}},{"base_weights":[4.9055798E-5,-1.2004283E-3,3.378646E-1,4.1195573E-3,-9.525911E-2,-2.4951147E-1,5.256016E-1,-1.2845643E-3,7.600667E-2,4.4813766E-3,-2.0044683E-1,3.1238463E-2,3.5373756E-1],"categories":[],"categories_nodes":[],"categories_segments":[],"categories_sizes":[],"default_left":[0,0,0,0,0,0,0,0,0,0,0,0,0],"id":21,"left_children":[1,3,5,7,9,-1,11,-1,-1,-1,-1,-1,-1],"loss_changes":[2.8854358E0,3.4084704E0,5.9684124E0,1.350112E1,2.3030403E1,0E0,6.0249977E0,0E0,0E0,0E0,0E0,0E0,0E0],"parents":[2147483647,0,0,1,1,2,2,3,3,4,4,6,6],"right_children":[2,4,6,8,10,-1,12,-1,-1,-1,-1,-1,-1],"split_conditions":[2.22185E0,2.8265816E5,5.0911578E2,2.3246895E5,5.7982947E2,-2.4951147E-1,7.685654E1,-1.2845643E-3,7.600667E-2,4.4813766E-3,-2.0044683E-1,3.1238463E-2,3.5373756E-1],"split_indices":[2,4,0,4,0,0,1,0,0,0,0,0,0],"split_type":[0,0,0,0,0,0,0,0,0,0,0,0,0],"sum_hessian":[6.8340234E3,6.8098325E3,2.4191196E1,6.4461904E3,3.6364215E2,2.8715804E0,2.1319616E1,6.2369336E3,2.0925652E2,3.0579605E2,5.7846104E1,1.3665642E1,7.6539736E0],"tree_param":{"num_deleted":"0","num_feature":"5","num_nodes":"13","size_leaf_vector":"1"}},{"base_weights":[5.222113E-5,-2.286982E-2,2.1234496E-2,-8.801653E-2,3.6870375E-2,5.319606E-1,9.199232E-3,-3.0051555E-2,2.2172593E-1,1.56812E-2,-1.8223192E-1,4.034175E-1,8.1832826E-2,5.1483847E-3,-1.6964367E-1],"categories":[],"categories_nodes":[],"categories_segments":[],"categories_sizes":[],"default_left":[0,0,0,0,0,0,0,0,0,0,0,0,0,0,0],"id":22,"left_children":[1,3,5,7,9,11,13,-1,-1,-1,-1,-1,-1,-1,-1],"loss_changes":[3.317842E0,1.2775885E1,2.1824696E1,1.5860278E1,1.7025906E1,1.6853233E1,1.5890175E1,0E0,0E0,0E0,0E0,0E0,0E0,0E0,0E0],"parents":[2147483647,0,0,1,1,2,2,3,3,4,4,5,5,6,6],"right_children":[2,4,6,8,10,12,14,-1,-1,-1,-1,-1,-1,-1,-1],"split_conditions":[5.786953E2,9.244865E4,5.7982947E2,5.5632854E-1,5.7722174E2,3.839785E1,3.0008206E5,-3.0051555E-2,2.2172593E-1,1.56812E-2,-1.8223192E-1,4.034175E-1,8.1832826E-2,5.1483847E-3,-1.6964367E-1],"split_indices":[0,4,0,3,0,1,4,0,0,0,0,0,0,0,0],"split_type":[0,0,0,0,0,0,0,0,0,0,0,0,0,0,0],"sum_hessian":[6.8312896E3,3.2808708E3,3.550419E3,1.5691925E3,1.7116785E3,8.0744865E1,3.469674E3,1.5473314E3,2.186109E1,1.6726184E3,3.9060024E1,1.8510475E1,6.2234394E1,3.423216E3,4.6457836E1],"tree_param":{"num_deleted":"0","num_feature":"5","num_nodes":"15","size_leaf_vector":"1"}},{"base_weights":[1.1395228E-4,9.265447E-3,-4.7931105E-2,-8.325994E-3,9.073474E-2,-5.7529856E-2,1.1987002E0,3.4451828E-4,-8.238299E-2,3.149737E-1,1.9591745E-2,-6.591944E-3,-1.06711365E-1,3.924484E-1,1.0995709E-1],"categories":[],"categories_nodes":[],"categories_segments":[],"categories_sizes":[],"default_left":[0,0,0,0,0,0,0,0,0,0,0,0,0,0,0],"id":23,"left_children":[1,3,5,7,9,11,13,-1,-1,-1,-1,-1,-1,-1,-1],"loss_changes":[3.0030012E0,8.222957E0,1.3145409E1,1.190631E1,2.47831E1,1.1499663E1,2.853012E-1,0E0,0E0,0E0,0E0,0E0,0E0,0E0,0E0],"parents":[2147483647,0,0,1,1,2,2,3,3,4,4,5,5,6,6],"right_children":[2,4,6,8,10,12,14,-1,-1,-1,-1,-1,-1,-1,-1],"split_conditions":[6.048433E2,5.9963086E2,2.4783245E5,5.9835693E2,-4.8291835E-1,8.583735E4,5.140038E-1,3.4451828E-4,-8.238299E-2,3.149737E-1,1.9591745E-2,-6.591944E-3,-1.06711365E-1,3.924484E-1,1.0995709E-1],"split_indices":[0,0,4,0,2,4,3,0,0,0,0,0,0,0,0],"split_type":[0,0,0,0,0,0,0,0,0,0,0,0,0,0,0],"sum_hessian":[6.827896E3,5.736105E3,1.0917909E3,4.7182124E3,1.0178928E3,1.0843951E3,7.3957205E0,4.5570674E3,1.6114484E2,2.5248089E1,9.926447E2,9.698199E2,1.145753E2,6.0305157E0,1.3652048E0],"tree_param":{"num_deleted":"0","num_feature":"5","num_nodes":"15","size_leaf_vector":"1"}},{"base_weights":[2.3451707E-4,-8.0257945E-2,5.7385624E-3,-1.1503856E-1,7.7815807E-1,2.4161167E-1,-5.7195174E-4,4.219469E-2,-5.334877E-2,3.5825634E-1,1.8047022E-2,1.49338E-1,-8.038497E-2,-6.6707246E-2,1.9639016E-3],"categories":[],"categories_nodes":[],"categories_segments":[],"categories_sizes":[],"default_left":[0,0,0,0,0,0,0,0,0,0,0,0,0,0,0],"id":24,"left_children":[1,3,5,7,9,11,13,-1,-1,-1,-1,-1,-1,-1,-1],"loss_changes":[3.0237253E0,1.3131437E1,9.508812E0,6.779027E0,5.047598E0,2.1862776E1,9.825471E0,0E0,0E0,0E0,0E0,0E0,0E0,0E0,0E0],"parents":[2147483647,0,0,1,1,2,2,3,3,4,4,5,5,6,6],"right_children":[2,4,6,8,10,12,14,-1,-1,-1,-1,-1,-1,-1,-1],"split_conditions":[-5.821583E-1,6.013015E2,-5.132709E-1,5.1602515E2,-7.087606E-1,5.748529E2,-4.0835562E-1,4.219469E-2,-5.334877E-2,3.5825634E-1,1.8047022E-2,1.49338E-1,-8.038497E-2,-6.6707246E-2,1.9639016E-3],"split_indices":[3,0,2,0,2,0,2,0,0,0,0,0,0,0,0],"split_type":[0,0,0,0,0,0,0,0,0,0,0,0,0,0,0],"sum_hessian":[6.822999E3,4.3582397E2,6.387175E3,4.196855E2,1.6138493E1,1.6545734E2,6.221718E3,8.250006E1,3.3718542E2,9.798033E0,6.3404593E0,1.1011846E2,5.533887E1,1.925383E2,6.029179E3],"tree_param":{"num_deleted":"0","num_feature":"5","num_nodes":"15","size_leaf_vector":"1"}},{"base_weights":[2.2343788E-4,1.1327854E-2,-3.6920723E-2,-4.963465E-3,1.5462795E-1,-4.48401E-2,1.2114373E0,-2.1922005E-4,-1.1184693E-1,5.3132724E-2,-4.9918857E-1,-9.721639E-3,-1.7082211E-1,3.9212888E-1,7.669785E-2],"categories":[],"categories_nodes":[],"categories_segments":[],"categories_sizes":[],"default_left":[0,0,0,0,0,0,0,0,0,0,0,0,0,0,0],"id":25,"left_children":[1,3,5,7,9,11,13,-1,-1,-1,-1,-1,-1,-1,-1],"loss_changes":[2.8134053E0,1.2259725E1,1.557418E1,7.342834E0,2.2211422E1,1.0163092E1,5.7387733E-1,0E0,0E0,0E0,0E0,0E0,0E0,0E0,0E0],"parents":[2147483647,0,0,1,1,2,2,3,3,4,4,5,5,6,6],"right_children":[2,4,6,8,10,12,14,-1,-1,-1,-1,-1,-1,-1,-1],"split_conditions":[6.026608E2,5.9963086E2,2.533273E5,5.9897363E2,6.189273E-1,8.48125E1,6.901566E-1,-2.1922005E-4,-1.1184693E-1,5.3132724E-2,-4.9918857E-1,-9.721639E-3,-1.7082211E-1,3.9212888E-1,7.669785E-2],"split_indices":[0,0,4,0,2,1,2,0,0,0,0,0,0,0,0],"split_type":[0,0,0,0,0,0,0,0,0,0,0,0,0,0,0],"sum_hessian":[6.8189536E3,5.2501055E3,1.568848E3,4.715034E3,5.350715E2,1.5599163E3,8.931769E0,4.662389E3,5.264522E1,5.294293E2,5.6421123E0,1.5248325E3,3.5083736E1,7.7850323E0,1.1467373E0],"tree_param":{"num_deleted":"0","num_feature":"5","num_nodes":"15","size_leaf_vector":"1"}},{"base_weights":[1.6368376E-4,-2.4030017E-2,1.6449144E-2,6.315605E-3,-6.0949844E-1,8.118352E-2,-1.5060266E-2,-5.2293735E-3,1.3124666E-1,-4.4710103E-1,-1.2679651E-1,3.4005854E-3,1.3278802E-1,-9.4963245E-2,5.2796863E-3],"categories":[],"categories_nodes":[],"categories_segments":[],"categories_sizes":[],"default_left":[0,0,0,0,0,0,0,0,0,0,0,0,0,0,0],"id":26,"left_children":[1,3,5,7,9,11,13,-1,-1,-1,-1,-1,-1,-1,-1],"loss_changes":[2.6857095E0,4.872586E1,8.311244E0,2.6713217E1,2.1612366E1,3.367256E1,2.6994944E1,0E0,0E0,0E0,0E0,0E0,0E0,0E0,0E0],"parents":[2147483647,0,0,1,1,2,2,3,3,4,4,5,5,6,6],"right_children":[2,4,6,8,10,12,14,-1,-1,-1,-1,-1,-1,-1,-1],"split_conditions":[5.708363E2,5.686112E2,5.9297174E2,5.669321E2,5.12082E4,5.898118E2,5.960448E2,-5.2293735E-3,1.3124666E-1,-4.4710103E-1,-1.2679651E-1,3.4005854E-3,1.3278802E-1,-9.4963245E-2,5.2796863E-3],"split_indices":[0,0,0,0,4,0,0,0,0,0,0,0,0,0,0],"split_type":[0,0,0,0,0,0,0,0,0,0,0,0,0,0,0],"sum_hessian":[6.814423E3,2.741368E3,4.0730552E3,2.6072212E3,1.341466E2,1.332968E3,2.7400872E3,2.4720337E3,1.3518759E2,2.2254683E1,1.11891914E2,1.1179563E3,2.1501166E2,2.669671E2,2.47312E3],"tree_param":{"num_deleted":"0","num_feature":"5","num_nodes":"15","size_leaf_vector":"1"}},{"base_weights":[-1.0901015E-5,-9.915501E-2,3.4723866E-3,-7.383903E-1,-1.0280687E-3,9.9868864E-2,-2.6532374E-3,-3.646301E-2,-3.0987108E-1,-1.5959364E-1,4.707579E-2,9.377679E-2,-8.574919E-3,-8.0906644E-2,1.3425625E-4],"categories":[],"categories_nodes":[],"categories_segments":[],"categories_sizes":[],"default_left":[0,0,0,0,0,0,0,0,0,0,0,0,0,0,0],"id":27,"left_children":[1,3,5,7,9,11,13,-1,-1,-1,-1,-1,-1,-1,-1],"loss_changes":[2.3513873E0,1.4495066E1,3.8843005E0,5.4612656E0,1.6968657E1,1.0748406E1,5.1218996E0,0E0,0E0,0E0,0E0,0E0,0E0,0E0,0E0],"parents":[2147483647,0,0,1,1,2,2,3,3,4,4,5,5,6,6],"right_children":[2,4,6,8,10,12,14,-1,-1,-1,-1,-1,-1,-1,-1],"split_conditions":[1.887912E1,5.275504E2,2.6826216E1,-1.1521763E0,4.857195E4,5.6460675E2,-1.1521763E0,-3.646301E-2,-3.0987108E-1,-1.5959364E-1,4.707579E-2,9.377679E-2,-8.574919E-3,-8.0906644E-2,1.3425625E-4],"split_indices":[1,0,1,3,4,0,3,0,0,0,0,0,0,0,0],"split_type":[0,0,0,0,0,0,0,0,0,0,0,0,0,0,0],"sum_hessian":[6.806761E3,2.3009679E2,6.576664E3,2.9752583E1,2.0034421E2,3.9203674E2,6.1846274E3,1.0071304E1,1.9681278E1,4.539105E1,1.5495316E2,1.4706273E2,2.4497401E2,7.000334E1,6.114624E3],"tree_param":{"num_deleted":"0","num_feature":"5","num_nodes":"15","size_leaf_vector":"1"}},{"base_weights":[-1.4907958E-4,-2.2288996E-3,1.7461818E-1,1.1972408E-3,-8.8519776E-1,7.6168835E-1,-1.23697296E-1,-3.9977845E-4,9.3566895E-2,-2.9242256E-1,1.361373E-1,3.9996293E-1,-1.0172153E-1,-9.388531E-2,2.4106392E-1],"categories":[],"categories_nodes":[],"categories_segments":[],"categories_sizes":[],"default_left":[0,0,0,0,0,0,0,0,0,0,0,0,0,0,0],"id":28,"left_children":[1,3,5,7,9,11,13,-1,-1,-1,-1,-1,-1,-1,-1],"loss_changes":[2.4739506E0,2.0348667E1,1.4112633E1,5.267479E0,3.559616E0,1.750681E1,9.716284E0,0E0,0E0,0E0,0E0,0E0,0E0,0E0,0E0],"parents":[2147483647,0,0,1,1,2,2,3,3,4,4,5,5,6,6],"right_children":[2,4,6,8,10,12,14,-1,-1,-1,-1,-1,-1,-1,-1],"split_conditions":[6.106116E2,6.1046234E2,6.1144366E2,6.1021326E2,1.6191651E-1,2.997825E4,1.34396E-1,-3.9977845E-4,9.3566895E-2,-2.9242256E-1,1.361373E-1,3.9996293E-1,-1.0172153E-1,-9.388531E-2,2.4106392E-1],"split_indices":[0,0,0,0,2,4,3,0,0,0,0,0,0,0,0],"split_type":[0,0,0,0,0,0,0,0,0,0,0,0,0,0,0],"sum_hessian":[6.804136E3,6.725092E3,7.904479E1,6.7000923E3,2.4999392E1,2.6109428E1,5.2935368E1,6.6469644E3,5.312768E1,2.3687347E1,1.3120458E0,1.704723E1,9.062199E0,4.4512665E1,8.422701E0],"tree_param":{"num_deleted":"0","num_feature":"5","num_nodes":"15","size_leaf_vector":"1"}},{"base_weights":[-6.1654195E-5,1.8056233E-1,-1.9842114E-3,-3.3973527E-1,2.4819754E-1,-3.038543E-1,6.3923025E-4,1.8073972E-1,2.1866426E-2,-1.2518062E-1,2.3731495E-1,1.1333502E-3,-4.763827E-2],"categories":[],"categories_nodes":[],"categories_segments":[],"categories_sizes":[],"default_left":[0,0,0,0,0,0,0,0,0,0,0,0,0],"id":29,"left_children":[1,3,5,-1,7,9,11,-1,-1,-1,-1,-1,-1],"loss_changes":[2.3621862E0,6.6432667E0,5.330482E0,0E0,4.238473E0,7.531409E0,3.3401043E0,0E0,0E0,0E0,0E0,0E0,0E0],"parents":[2147483647,0,0,1,1,2,2,4,4,5,5,6,6],"right_children":[2,4,6,-1,8,10,12,-1,-1,-1,-1,-1,-1],"split_conditions":[-1.4416755E0,2.20843E5,-1.1521763E0,-3.3973527E-1,5.23235E2,5.0222494E5,3.8467675E5,1.8073972E-1,2.1866426E-2,-1.2518062E-1,2.3731495E-1,1.1333502E-3,-4.763827E-2],"split_indices":[2,4,3,0,0,4,4,0,0,0,0,0,0],"split_type":[0,0,0,0,0,0,0,0,0,0,0,0,0],"sum_hessian":[6.8003247E3,7.064157E1,6.729683E3,2.6893463E0,6.7952225E1,5.6992023E1,6.6726914E3,2.1688059E1,4.626416E1,5.2203484E1,4.7885404E0,6.544826E3,1.27865005E2],"tree_param":{"num_deleted":"0","num_feature":"5","num_nodes":"13","size_leaf_vector":"1"}},{"base_weights":[-5.8409187E-5,-1.1106856E-3,2.933748E-1,3.253635E-3,-9.780227E-2,1.0001608E0,-3.0656584E-2,-1.4955923E-3,3.6081135E-2,-1.6500532E-3,-1.728188E-1,-4.424191E-4,3.5153815E-1,-2.3688862E-1,1.7033657E-1],"categories":[],"categories_nodes":[],"categories_segments":[],"categories_sizes":[],"default_left":[0,0,0,0,0,0,0,0,0,0,0,0,0,0,0],"id":30,"left_children":[1,3,5,7,9,11,13,-1,-1,-1,-1,-1,-1,-1,-1],"loss_changes":[2.0995512E0,2.8594518E0,5.5951896E0,6.251474E0,1.2915203E1,1.3198538E0,8.455791E0,0E0,0E0,0E0,0E0,0E0,0E0,0E0,0E0],"parents":[2147483647,0,0,1,1,2,2,3,3,4,4,5,5,6,6],"right_children":[2,4,6,8,10,12,14,-1,-1,-1,-1,-1,-1,-1,-1],"split_conditions":[2.22185E0,5.833815E-1,6.261741E1,3.5703945E-1,3.8467675E5,5.148076E2,7.685654E1,-1.4955923E-3,3.6081135E-2,-1.6500532E-3,-1.728188E-1,-4.424191E-4,3.5153815E-1,-2.3688862E-1,1.7033657E-1],"split_indices":[2,3,1,3,4,0,1,0,0,0,0,0,0,0,0],"split_type":[0,0,0,0,0,0,0,0,0,0,0,0,0,0,0],"sum_hessian":[6.797607E3,6.77431E3,2.3297037E1,6.482671E3,2.9163882E2,6.6673703E0,1.6629665E1,6.0571553E3,4.2551593E2,2.4530714E2,4.6331673E1,1.1203734E0,5.546997E0,7.1906843E0,9.438982E0],"tree_param":{"num_deleted":"0","num_feature":"5","num_nodes":"15","size_leaf_vector":"1"}},{"base_weights":[1.1754467E-5,9.282607E-3,-3.3957183E-2,-6.721416E-2,3.0141385E-2,1.560186E-1,-1.0198405E-1,-3.032444E-1,-1.6189178E-2,1.1284822E-2,-1.6781087E-1,9.443568E-2,-2.8882803E-2,-6.297933E-2,1.4105283E-2],"categories":[],"categories_nodes":[],"categories_segments":[],"categories_sizes":[],"default_left":[0,0,0,0,0,0,0,0,0,0,0,0,0,0,0],"id":31,"left_children":[1,3,5,7,9,11,13,-1,-1,-1,-1,-1,-1,-1,-1],"loss_changes":[2.1404672E0,8.52198E0,1.8849007E1,1.4252918E1,1.8511335E1,1.5437157E1,1.7278728E1,0E0,0E0,0E0,0E0,0E0,0E0,0E0,0E0],"parents":[2147483647,0,0,1,1,2,2,3,3,4,4,5,5,6,6],"right_children":[2,4,6,8,10,12,14,-1,-1,-1,-1,-1,-1,-1,-1],"split_conditions":[6.490431E1,4.183735E4,4.54622E4,-2.8904724E-1,6.09982E2,6.047115E2,1.0184225E5,-3.032444E-1,-1.6189178E-2,1.1284822E-2,-1.6781087E-1,9.443568E-2,-2.8882803E-2,-6.297933E-2,1.4105283E-2],"split_indices":[1,4,4,3,0,0,4,0,0,0,0,0,0,0,0],"split_type":[0,0,0,0,0,0,0,0,0,0,0,0,0,0,0],"sum_hessian":[6.7948374E3,5.338557E3,1.45628E3,1.1433291E3,4.195228E3,3.836324E2,1.0726477E3,1.4789995E1,1.1285392E3,4.1436255E3,5.160277E1,2.3530756E2,1.4832483E2,6.217792E2,4.508685E2],"tree_param":{"num_deleted":"0","num_feature":"5","num_nodes":"15","size_leaf_vector":"1"}},{"base_weights":[-6.6511115E-5,-2.2642936E-3,1.9129181E-1,4.5039596E-5,-6.589955E-1,2.8984308E-1,-8.7111723E-1,-1.3013133E-3,4.579534E-2,-6.25724E-2,-2.8542736E-1,2.228852E-1,-3.39824E-2,-3.3496633E-1,7.221462E-2],"categories":[],"categories_nodes":[],"categories_segments":[],"categories_sizes":[],"default_left":[0,0,0,0,0,0,0,0,0,0,0,0,0,0,0],"id":32,"left_children":[1,3,5,7,9,11,13,-1,-1,-1,-1,-1,-1,-1,-1],"loss_changes":[2.857273E0,1.0186706E1,8.329515E0,4.477973E0,2.901638E0,1.3115733E1,2.1238904E0,0E0,0E0,0E0,0E0,0E0,0E0,0E0,0E0],"parents":[2147483647,0,0,1,1,2,2,3,3,4,4,5,5,6,6],"right_children":[2,4,6,8,10,12,14,-1,-1,-1,-1,-1,-1,-1,-1],"split_conditions":[6.106116E2,6.1046234E2,8.40219E4,6.097516E2,4.5189266E1,5.7333387E-2,1.7828468E-2,-1.3013133E-3,4.579534E-2,-6.25724E-2,-2.8542736E-1,2.228852E-1,-3.39824E-2,-3.3496633E-1,7.221462E-2],"split_indices":[0,0,4,0,1,3,3,0,0,0,0,0,0,0,0],"split_type":[0,0,0,0,0,0,0,0,0,0,0,0,0,0,0],"sum_hessian":[6.791879E3,6.7157354E3,7.614319E1,6.693199E3,2.2536072E1,7.0345024E1,5.7981677E0,6.507286E3,1.8591354E2,9.545945E0,1.2990126E1,3.2722103E1,3.762292E1,4.746197E0,1.0519705E0],"tree_param":{"num_deleted":"0","num_feature":"5","num_nodes":"15","size_leaf_vector":"1"}},{"base_weights":[-1.5756328E-4,-7.261473E-2,4.152077E-3,4.063477E-2,-2.0011589E-1,2.0778829E-1,-1.2693637E-4,-8.4611446E-2,5.6581046E-2,-3.152128E-1,-3.994892E-2,1.9237559E-1,2.6337383E-2,-8.834772E-3,6.012934E-3],"categories":[],"categories_nodes":[],"categories_segments":[],"categories_sizes":[],"default_left":[0,0,0,0,0,0,0,0,0,0,0,0,0,0,0],"id":33,"left_children":[1,3,5,7,9,11,13,-1,-1,-1,-1,-1,-1,-1,-1],"loss_changes":[2.1207166E0,5.5133953E0,5.585618E0,9.733541E0,1.00835E1,6.8057404E0,3.7143464E0,0E0,0E0,0E0,0E0,0E0,0E0,0E0,0E0],"parents":[2147483647,0,0,1,1,2,2,3,3,4,4,5,5,6,6],"right_children":[2,4,6,8,10,12,14,-1,-1,-1,-1,-1,-1,-1,-1],"split_conditions":[2.2483782E1,5.81217E2,2.5222044E1,5.3662103E2,5.8325525E2,-7.087606E-1,5.7252576E2,-8.4611446E-2,5.6581046E-2,-3.152128E-1,-3.994892E-2,1.9237559E-1,2.6337383E-2,-8.834772E-3,6.012934E-3],"split_indices":[1,0,1,0,0,2,0,0,0,0,0,0,0,0,0],"split_type":[0,0,0,0,0,0,0,0,0,0,0,0,0,0,0],"sum_hessian":[6.7894507E3,3.8026572E2,6.409185E3,2.0174892E2,1.7851678E2,1.3092584E2,6.2782593E3,6.3144558E1,1.3860437E2,1.1954108E1,1.6656267E2,2.744451E1,1.0348134E2,2.5584463E3,3.7198127E3],"tree_param":{"num_deleted":"0","num_feature":"5","num_nodes":"15","size_leaf_vector":"1"}},{"base_weights":[-1.676131E-4,-5.359908E-3,5.8563877E-2,-6.0645945E-2,9.830928E-3,3.963553E-1,-2.7508194E-2,4.6300265E-1,-2.0494018E-2,4.9486082E-2,-1.9927758E-3,1.5603481E-1,-1.4635682E-1,-6.1762426E-2,7.505545E-2],"categories":[],"categories_nodes":[],"categories_segments":[],"categories_sizes":[],"default_left":[0,0,0,0,0,0,0,0,0,0,0,0,0,0,0],"id":34,"left_children":[1,3,5,7,9,11,13,-1,-1,-1,-1,-1,-1,-1,-1],"loss_changes":[2.0697215E0,5.237627E0,1.6039274E1,1.6637217E1,1.2503535E1,1.2511349E1,2.1858858E1,0E0,0E0,0E0,0E0,0E0,0E0,0E0,0E0],"parents":[2147483647,0,0,1,1,2,2,3,3,4,4,5,5,6,6],"right_children":[2,4,6,8,10,12,14,-1,-1,-1,-1,-1,-1,-1,-1],"split_conditions":[7.498807E1,4.183735E4,4.115495E4,5.289713E2,4.857195E4,2.8681824E-1,1.144798E5,4.6300265E-1,-2.0494018E-2,4.9486082E-2,-1.9927758E-3,1.5603481E-1,-1.4635682E-1,-6.1762426E-2,7.505545E-2],"split_indices":[1,4,4,0,4,2,4,0,0,0,0,0,0,0,0],"split_type":[0,0,0,0,0,0,0,0,0,0,0,0,0,0,0],"sum_hessian":[6.785028E3,6.2347397E3,5.50288E2,1.343213E3,4.891527E3,1.1101251E2,4.3927554E2,5.437474E0,1.3377756E3,4.6872925E2,4.4227974E3,9.774339E1,1.32691145E1,2.6763077E2,1.7164478E2],"tree_param":{"num_deleted":"0","num_feature":"5","num_nodes":"15","size_leaf_vector":"1"}},{"base_weights":[-1.170966E-5,-2.260924E-2,1.388119E-2,2.1010295E-2,-2.1020874E-1,-4.0258326E-2,6.847593E-2,6.256761E-2,-4.38155E-3,-3.378092E-1,-5.1232055E-2,-5.099519E-3,-1.0364141E-1,4.2577907E-2,-2.044946E-2],"categories":[],"categories_nodes":[],"categories_segments":[],"categories_sizes":[],"default_left":[0,0,0,0,0,0,0,0,0,0,0,0,0,0,0],"id":35,"left_children":[1,3,5,7,9,11,13,-1,-1,-1,-1,-1,-1,-1,-1],"loss_changes":[2.1295702E0,2.1137589E1,1.2418861E1,1.4005379E1,1.7406622E1,1.4971849E1,2.1004856E1,0E0,0E0,0E0,0E0,0E0,0E0,0E0,0E0],"parents":[2147483647,0,0,1,1,2,2,3,3,4,4,5,5,6,6],"right_children":[2,4,6,8,10,12,14,-1,-1,-1,-1,-1,-1,-1,-1],"split_conditions":[5.743035E4,1.3731202E-1,-2.4431618E-2,-1.302742E-1,5.553876E2,6.042275E2,1.186518E5,6.256761E-2,-4.38155E-3,-3.378092E-1,-5.1232055E-2,-5.099519E-3,-1.0364141E-1,4.2577907E-2,-2.044946E-2],"split_indices":[4,3,3,3,0,0,4,0,0,0,0,0,0,0,0],"split_type":[0,0,0,0,0,0,0,0,0,0,0,0,0,0,0],"sum_hessian":[6.781255E3,2.5815693E3,4.1996855E3,2.0952761E3,4.8629327E2,2.1087659E3,2.0909197E3,3.336171E2,1.7616589E3,1.8937828E1,4.6735544E2,1.9604202E3,1.4834564E2,1.3598839E3,7.310358E2],"tree_param":{"num_deleted":"0","num_feature":"5","num_nodes":"15","size_leaf_vector":"1"}},{"base_weights":[-6.847596E-5,1.5547097E-1,-1.8469448E-3,1.1123496E0,6.937721E-2,-3.462592E-1,-4.4309688E-4,4.6560574E-2,3.95009E-1,-9.398618E-2,9.637969E-2,2.6589778E-1,-1.6424336E-1,-6.4715976E-4,4.5612007E-2],"categories":[],"categories_nodes":[],"categories_segments":[],"categories_sizes":[],"default_left":[0,0,0,0,0,0,0,0,0,0,0,0,0,0,0],"id":36,"left_children":[1,3,5,7,9,11,13,-1,-1,-1,-1,-1,-1,-1,-1],"loss_changes":[1.8753347E0,6.2365956E0,3.2406344E0,1.0200257E0,6.9809637E0,7.2334967E0,1.7453822E0,0E0,0E0,0E0,0E0,0E0,0E0,0E0,0E0],"parents":[2147483647,0,0,1,1,2,2,3,3,4,4,5,5,6,6],"right_children":[2,4,6,8,10,12,14,-1,-1,-1,-1,-1,-1,-1,-1],"split_conditions":[1.85721E4,-6.964043E-2,1.97478E4,-8.7629005E-2,1.5675463E-2,3.9441376E1,6.106116E2,4.6560574E-2,3.95009E-1,-9.398618E-2,9.637969E-2,2.6589778E-1,-1.6424336E-1,-6.4715976E-4,4.5612007E-2],"split_indices":[4,3,4,3,3,1,0,0,0,0,0,0,0,0,0],"split_type":[0,0,0,0,0,0,0,0,0,0,0,0,0,0,0],"sum_hessian":[6.7773735E3,7.5640816E1,6.701733E3,5.259915E0,7.0380905E1,2.6208607E1,6.675524E3,1.2349578E0,4.0249567E0,2.7841232E1,4.253967E1,3.2002654E0,2.300834E1,6.602292E3,7.323223E1],"tree_param":{"num_deleted":"0","num_feature":"5","num_nodes":"15","size_leaf_vector":"1"}},{"base_weights":[5.5269935E-5,2.9451728E-1,-8.16812E-4,3.3123475E-1,-1.0854673E-1,-1.0985096E-1,1.7267753E-3,-3.744952E-1,1.0964985E-1,1.989549E-2,-1.7826109E-1,1.9533207E-1,-2.7734938E-4],"categories":[],"categories_nodes":[],"categories_segments":[],"categories_sizes":[],"default_left":[0,0,0,0,0,0,0,0,0,0,0,0,0],"id":37,"left_children":[1,3,5,-1,7,9,11,-1,-1,-1,-1,-1,-1],"loss_changes":[1.7405282E0,6.6508827E0,1.8744223E0,0E0,8.167685E0,1.318617E1,1.1372093E1,0E0,0E0,0E0,0E0,0E0,0E0],"parents":[2147483647,0,0,1,1,2,2,4,4,5,5,6,6],"right_children":[2,4,6,-1,8,10,12,-1,-1,-1,-1,-1,-1],"split_conditions":[4.9667596E2,2.589497E5,5.0753644E2,3.3123475E-1,4.501184E5,6.0686726E1,5.0911578E2,-3.744952E-1,1.0964985E-1,1.989549E-2,-1.7826109E-1,1.9533207E-1,-2.7734938E-4],"split_indices":[0,4,0,0,4,1,0,0,0,0,0,0,0],"split_type":[0,0,0,0,0,0,0,0,0,0,0,0,0],"sum_hessian":[6.7759536E3,1.90142E1,6.7569395E3,5.7418175E0,1.3272382E1,1.5307317E2,6.603866E3,3.4188833E0,9.853498E0,1.1287957E2,4.01936E1,2.5857958E1,6.5780083E3],"tree_param":{"num_deleted":"0","num_feature":"5","num_nodes":"13","size_leaf_vector":"1"}},{"base_weights":[6.906186E-5,-1.3005855E-3,1.8839994E-1,9.521216E-2,-5.3099617E-3,-9.0423834E-1,4.0767932E-1,7.304046E-2,-1.2368478E-1,-1.2400401E-1,-6.132553E-4,-3.7820745E-1,-3.59669E-2,4.001052E-1,-2.5669865E-3],"categories":[],"categories_nodes":[],"categories_segments":[],"categories_sizes":[],"default_left":[0,0,0,0,0,0,0,0,0,0,0,0,0,0,0],"id":38,"left_children":[1,3,5,7,9,11,13,-1,-1,-1,-1,-1,-1,-1,-1],"loss_changes":[1.7477701E0,2.6034915E0,1.2089741E1,2.0291243E1,8.6067705E0,2.221846E0,1.5981312E1,0E0,0E0,0E0,0E0,0E0,0E0,0E0,0E0],"parents":[2147483647,0,0,1,1,2,2,3,3,4,4,5,5,6,6],"right_children":[2,4,6,8,10,12,14,-1,-1,-1,-1,-1,-1,-1,-1],"split_conditions":[1.5150805E0,5.121636E2,5.121636E2,3.3289866E5,5.148076E2,8.023265E1,6.1781586E1,7.304046E-2,-1.2368478E-1,-1.2400401E-1,-6.132553E-4,-3.7820745E-1,-3.59669E-2,4.001052E-1,-2.5669865E-3],"split_indices":[3,0,0,4,0,1,1,0,0,0,0,0,0,0,0],"split_type":[0,0,0,0,0,0,0,0,0,0,0,0,0,0,0],"sum_hessian":[6.773748E3,6.725827E3,4.792088E1,2.6735577E2,6.4584717E3,7.48759E0,4.043329E1,2.0731303E2,6.004275E1,5.0283794E1,6.4081875E3,4.730479E0,2.7571108E0,1.1855057E1,2.8578232E1],"tree_param":{"num_deleted":"0","num_feature":"5","num_nodes":"15","size_leaf_vector":"1"}},{"base_weights":[4.8741975E-5,-1.4362721E-2,1.8902104E-2,-6.1073694E-3,-1.1465409E0,3.6068875E-1,-4.266587E-3,-4.4044023E-3,4.8123565E-2,-4.3599E-1,3.1511092E-1,6.9494985E-2,3.764082E-1,-6.2692724E-2,6.0333656E-3],"categories":[],"categories_nodes":[],"categories_segments":[],"categories_sizes":[],"default_left":[0,0,0,0,0,0,0,0,0,0,0,0,0,0,0],"id":39,"left_children":[1,3,5,7,9,11,13,-1,-1,-1,-1,-1,-1,-1,-1],"loss_changes":[1.8403741E0,3.5873898E1,2.3238989E1,5.4451103E0,2.0250763E1,2.1201569E1,1.3723608E1,0E0,0E0,0E0,0E0,0E0,0E0,0E0,0E0],"parents":[2147483647,0,0,1,1,2,2,3,3,4,4,5,5,6,6],"right_children":[2,4,6,8,10,12,14,-1,-1,-1,-1,-1,-1,-1,-1],"split_conditions":[5.898118E2,5.891362E2,5.927273E2,5.8513727E2,1.525979E5,1.4150784E5,5.960448E2,-4.4044023E-3,4.8123565E-2,-4.3599E-1,3.1511092E-1,6.9494985E-2,3.764082E-1,-6.2692724E-2,6.0333656E-3],"split_indices":[0,0,0,0,4,4,0,0,0,0,0,0,0,0,0],"split_type":[0,0,0,0,0,0,0,0,0,0,0,0,0,0,0],"sum_hessian":[6.7714395E3,3.8379548E3,2.9334849E3,3.811171E3,2.6784008E1,1.8530347E2,2.7481814E3,3.6254124E3,1.8575838E2,2.379934E1,2.984669E0,1.6303102E2,2.2272436E1,2.916361E2,2.4565454E3],"tree_param":{"num_deleted":"0","num_feature":"5","num_nodes":"15","size_leaf_vector":"1"}},{"base_weights":[8.0021025E-5,-9.329986E-3,2.947224E-2,2.7163676E-3,-1.9054815E-1,9.56128E-2,-9.1252804E-2,-2.6375777E-3,2.5762433E-2,1.2323407E-2,-1.0084589E-1,4.08683E-2,-5.2931737E-2,-5.2584615E-2,5.154992E-2],"categories":[],"categories_nodes":[],"categories_segments":[],"categories_sizes":[],"default_left":[0,0,0,0,0,0,0,0,0,0,0,0,0,0,0],"id":40,"left_children":[1,3,5,7,9,11,13,-1,-1,-1,-1,-1,-1,-1,-1],"loss_changes":[1.8719152E0,1.1192253E1,1.3114486E1,4.6022177E0,1.0791506E1,1.1746038E1,1.2884339E1,0E0,0E0,0E0,0E0,0E0,0E0,0E0,0E0],"parents":[2147483647,0,0,1,1,2,2,3,3,4,4,5,5,6,6],"right_children":[2,4,6,8,10,12,14,-1,-1,-1,-1,-1,-1,-1,-1],"split_conditions":[1.8323265E-1,1.4446986E-1,1.155764E5,1.7700395E5,1.34396E-1,8.023265E1,7.5354675E1,-2.6375777E-3,2.5762433E-2,1.2323407E-2,-1.0084589E-1,4.08683E-2,-5.2931737E-2,-5.2584615E-2,5.154992E-2],"split_indices":[2,2,4,4,3,1,1,0,0,0,0,0,0,0,0],"split_type":[0,0,0,0,0,0,0,0,0,0,0,0,0,0,0],"sum_hessian":[6.7660605E3,5.1257266E3,1.6403341E3,4.8071587E3,3.185676E2,1.0598768E3,5.8045734E2,4.223555E3,5.836036E2,1.2323881E2,1.9532878E2,9.226351E2,1.3724174E2,4.4019382E2,1.4026352E2],"tree_param":{"num_deleted":"0","num_feature":"5","num_nodes":"15","size_leaf_vector":"1"}},{"base_weights":[6.1138744E-5,-7.122677E-2,4.8597446E-3,-1.055831E-1,5.2941245E-1,3.000115E-1,1.1318022E-3,-3.893843E-2,3.0418262E-1,-2.8146026E-1,2.2882617E-1,2.4403243E-1,-7.5964527E-3,-1.97045E-3,3.7549134E-2],"categories":[],"categories_nodes":[],"categories_segments":[],"categories_sizes":[],"default_left":[0,0,0,0,0,0,0,0,0,0,0,0,0,0,0],"id":41,"left_children":[1,3,5,7,9,11,13,-1,-1,-1,-1,-1,-1,-1,-1],"loss_changes":[2.3140943E0,8.859858E0,6.973501E0,1.1092735E1,8.677471E0,1.3225002E1,5.979411E0,0E0,0E0,0E0,0E0,0E0,0E0,0E0,0E0],"parents":[2147483647,0,0,1,1,2,2,3,3,4,4,5,5,6,6],"right_children":[2,4,6,8,10,12,14,-1,-1,-1,-1,-1,-1,-1,-1],"split_conditions":[-5.821583E-1,5.9815393E2,-5.204598E-1,6.816736E1,1.353258E5,5.4357153E2,2.3246895E5,-3.893843E-2,3.0418262E-1,-2.8146026E-1,2.2882617E-1,2.4403243E-1,-7.5964527E-3,-1.97045E-3,3.7549134E-2],"split_indices":[3,0,3,1,4,0,4,0,0,0,0,0,0,0,0],"split_type":[0,0,0,0,0,0,0,0,0,0,0,0,0,0,0],"sum_hessian":[6.7627134E3,4.2563614E2,6.337077E3,4.0338678E2,2.2249353E1,7.80514E1,6.259026E3,3.9571286E2,7.673911E0,2.6378338E0,1.9611519E1,2.9692045E1,4.8359352E1,5.894066E3,3.649596E2],"tree_param":{"num_deleted":"0","num_feature":"5","num_nodes":"15","size_leaf_vector":"1"}},{"base_weights":[1.3361439E-4,-4.741962E-2,6.1857086E-3,-5.426399E-1,-2.5371507E-2,5.6314062E-2,-8.092241E-3,3.2163987E-1,-2.769902E-1,6.0341462E-2,-1.9910417E-2,5.6221973E-2,-4.4267937E-3,-3.2057267E-2,1.6183476E-3],"categories":[],"categories_nodes":[],"categories_segments":[],"categories_sizes":[],"default_left":[0,0,0,0,0,0,0,0,0,0,0,0,0,0,0],"id":42,"left_children":[1,3,5,7,9,11,13,-1,-1,-1,-1,-1,-1,-1,-1],"loss_changes":[1.9459032E0,8.321188E0,4.293402E0,2.0960136E1,6.809656E0,1.2392132E1,6.220051E0,0E0,0E0,0E0,0E0,0E0,0E0,0E0,0E0],"parents":[2147483647,0,0,1,1,2,2,3,3,4,4,5,5,6,6],"right_children":[2,4,6,8,10,12,14,-1,-1,-1,-1,-1,-1,-1,-1],"split_conditions":[-4.0835562E-1,6.23785E4,-1.2289929E-1,5.67785E2,5.1602515E2,6.101265E4,-6.7887254E-2,3.2163987E-1,-2.769902E-1,6.0341462E-2,-1.9910417E-2,5.6221973E-2,-4.4267937E-3,-3.2057267E-2,1.6183476E-3],"split_indices":[2,4,2,0,0,4,2,0,0,0,0,0,0,0,0],"split_type":[0,0,0,0,0,0,0,0,0,0,0,0,0,0,0],"sum_hessian":[6.759363E3,7.62367E2,5.9969956E3,3.1488802E1,7.308782E2,1.3287949E3,4.6682007E3,5.660464E0,2.5828337E1,1.11411766E2,6.1946643E2,4.6656107E2,8.622338E2,5.60038E2,4.108163E3],"tree_param":{"num_deleted":"0","num_feature":"5","num_nodes":"15","size_leaf_vector":"1"}},{"base_weights":[8.613074E-5,9.079863E-3,-3.2917902E-2,6.5783486E-3,4.013394E-1,9.483113E-2,-8.236798E-2,-8.408962E-3,8.429143E-3,2.3265068E-1,3.9015055E-2,1.4282121E-1,-2.380234E-3,-4.4973902E-2,6.238651E-3],"categories":[],"categories_nodes":[],"categories_segments":[],"categories_sizes":[],"default_left":[0,0,0,0,0,0,0,0,0,0,0,0,0,0,0],"id":43,"left_children":[1,3,5,7,9,11,13,-1,-1,-1,-1,-1,-1,-1,-1],"loss_changes":[2.0055418E0,5.207407E0,9.148171E0,3.9307196E0,3.3127394E0,1.5841328E1,7.275504E0,0E0,0E0,0E0,0E0,0E0,0E0,0E0,0E0],"parents":[2147483647,0,0,1,1,2,2,3,3,4,4,5,5,6,6],"right_children":[2,4,6,8,10,12,14,-1,-1,-1,-1,-1,-1,-1,-1],"split_conditions":[6.490431E1,1.2735716E0,4.703425E4,5.743035E4,5.4106995E1,2.5216438E-2,1.079534E5,-8.408962E-3,8.429143E-3,2.3265068E-1,3.9015055E-2,1.4282121E-1,-2.380234E-3,-4.4973902E-2,6.238651E-3],"split_indices":[1,3,4,4,1,3,4,0,0,0,0,0,0,0,0],"split_type":[0,0,0,0,0,0,0,0,0,0,0,0,0,0,0],"sum_hessian":[6.7545396E3,5.3086387E3,1.4459008E3,5.2760093E3,3.2629364E1,4.0324423E2,1.0426565E3,2.0226774E3,3.2533318E3,1.2933234E1,1.9696133E1,8.484666E1,3.1839758E2,6.298299E2,4.1282657E2],"tree_param":{"num_deleted":"0","num_feature":"5","num_nodes":"15","size_leaf_vector":"1"}},{"base_weights":[1.3694324E-4,-4.321831E-2,9.194118E-3,-3.4941316E-3,-3.469136E-1,1.8325442E-1,1.2792404E-3,-1.1119004E-2,8.63283E-2,-1.9779997E-1,-3.1236155E-2,-3.607335E-2,1.4768998E-1,1.4249784E-3,-8.120754E-2],"categories":[],"categories_nodes":[],"categories_segments":[],"categories_sizes":[],"default_left":[0,0,0,0,0,0,0,0,0,0,0,0,0,0,0],"id":44,"left_children":[1,3,5,7,9,11,13,-1,-1,-1,-1,-1,-1,-1,-1],"loss_changes":[2.652794E0,1.4082617E1,7.6985025E0,1.0114362E1,1.01736965E1,2.285603E1,5.0477023E0,0E0,0E0,0E0,0E0,0E0,0E0,0E0,0E0],"parents":[2147483647,0,0,1,1,2,2,3,3,4,4,5,5,6,6],"right_children":[2,4,6,8,10,12,14,-1,-1,-1,-1,-1,-1,-1,-1],"split_conditions":[5.453745E2,5.41237E2,5.5605225E2,5.3908185E2,1.186518E5,9.177155E4,7.863013E-1,-1.1119004E-2,8.63283E-2,-1.9779997E-1,-3.1236155E-2,-3.607335E-2,1.4768998E-1,1.4249784E-3,-8.120754E-2],"split_indices":[0,0,0,0,4,4,2,0,0,0,0,0,0,0,0],"split_type":[0,0,0,0,0,0,0,0,0,0,0,0,0,0,0],"sum_hessian":[6.753668E3,1.1664216E3,5.5872466E3,1.0323932E3,1.3402837E2,2.4204965E2,5.345197E3,9.264823E2,1.05910904E2,5.7860027E1,7.6168335E1,1.2242893E2,1.1962073E2,5.278815E3,6.6381676E1],"tree_param":{"num_deleted":"0","num_feature":"5","num_nodes":"15","size_leaf_vector":"1"}},{"base_weights":[6.627605E-5,-2.372542E-2,1.4191612E-2,5.8428936E-2,-6.5348126E-2,-2.508427E-2,5.571319E-2,9.547508E-2,-1.2015332E-2,-3.5834022E-2,1.8032279E-2,-7.020478E-2,9.924446E-3,3.501988E-2,-1.3171906E-2],"categories":[],"categories_nodes":[],"categories_segments":[],"categories_sizes":[],"default_left":[0,0,0,0,0,0,0,0,0,0,0,0,0,0,0],"id":45,"left_children":[1,3,5,7,9,11,13,-1,-1,-1,-1,-1,-1,-1,-1],"loss_changes":[2.2696452E0,8.607005E0,6.912135E0,2.167394E1,1.134392E1,2.6481148E1,1.2528837E1,0E0,0E0,0E0,0E0,0E0,0E0,0E0,0E0],"parents":[2147483647,0,0,1,1,2,2,3,3,4,4,5,5,6,6],"right_children":[2,4,6,8,10,12,14,-1,-1,-1,-1,-1,-1,-1,-1],"split_conditions":[-7.834923E-2,6.563325E4,6.349585E4,5.691618E2,1.7700395E5,5.760994E2,1.186518E5,9.547508E-2,-1.2015332E-2,-3.5834022E-2,1.8032279E-2,-7.020478E-2,9.924446E-3,3.501988E-2,-1.3171906E-2],"split_indices":[3,4,4,0,4,0,4,0,0,0,0,0,0,0,0],"split_type":[0,0,0,0,0,0,0,0,0,0,0,0,0,0,0],"sum_hessian":[6.7515737E3,2.5149292E3,4.236645E3,8.4556335E2,1.6693657E3,2.1774028E3,2.059242E3,2.3179189E2,6.137715E2,1.1664297E3,5.0293613E2,4.7351428E2,1.7038885E3,1.2769208E3,7.823212E2],"tree_param":{"num_deleted":"0","num_feature":"5","num_nodes":"15","size_leaf_vector":"1"}},{"base_weights":[5.1586794E-5,7.816591E-3,-3.4087345E-2,6.467685E-1,5.38163E-3,-7.197027E-2,1.3585484E-1,-2.3673648E-1,3.669959E-1,-3.4149602E-2,3.7032836E-3,-1.1235234E-2,-1.9245589E-1,2.6333898E-1,9.87512E-3],"categories":[],"categories_nodes":[],"categories_segments":[],"categories_sizes":[],"default_left":[0,0,0,0,0,0,0,0,0,0,0,0,0,0,0],"id":46,"left_children":[1,3,5,7,9,11,13,-1,-1,-1,-1,-1,-1,-1,-1],"loss_changes":[1.7881807E0,8.546689E0,8.057102E0,1.8230515E1,4.5464993E0,2.0084642E1,1.739946E1,0E0,0E0,0E0,0E0,0E0,0E0,0E0,0E0],"parents":[2147483647,0,0,1,1,2,2,3,3,4,4,5,5,6,6],"right_children":[2,4,6,8,10,12,14,-1,-1,-1,-1,-1,-1,-1,-1],"split_conditions":[1.4526225E5,-8.888649E-1,5.887313E2,5.2136017E2,-4.0835562E-1,5.818117E2,5.927273E2,-2.3673648E-1,3.669959E-1,-3.4149602E-2,3.7032836E-3,-1.1235234E-2,-1.9245589E-1,2.6333898E-1,9.87512E-3],"split_indices":[4,2,0,0,2,0,0,0,0,0,0,0,0,0,0],"split_type":[0,0,0,0,0,0,0,0,0,0,0,0,0,0,0],"sum_hessian":[6.743582E3,5.4945913E3,1.2489906E3,1.9855074E1,5.4747363E3,1.0217926E3,2.2719798E2,5.5827193E0,1.4272354E1,3.0125943E2,5.173477E3,9.6440717E2,5.7385452E1,2.6764053E1,2.0043393E2],"tree_param":{"num_deleted":"0","num_feature":"5","num_nodes":"15","size_leaf_vector":"1"}},{"base_weights":[4.5122826E-5,8.957203E-3,-2.617512E-2,-1.0348907E-3,1.342457E-1,1.0228213E0,-3.1872522E-2,1.5978942E-3,-5.373374E-2,7.2106786E-2,-1.6364622E-1,3.328735E-1,5.3633265E-2,-4.4746418E-2,3.8658662E-3],"categories":[],"categories_nodes":[],"categories_segments":[],"categories_sizes":[],"default_left":[0,0,0,0,0,0,0,0,0,0,0,0,0,0,0],"id":47,"left_children":[1,3,5,7,9,11,13,-1,-1,-1,-1,-1,-1,-1,-1],"loss_changes":[1.5751284E0,6.2980633E0,1.0251952E1,5.279892E0,2.6932388E1,4.8022747E-1,8.934519E0,0E0,0E0,0E0,0E0,0E0,0E0,0E0,0E0],"parents":[2147483647,0,0,1,1,2,2,3,3,4,4,5,5,6,6],"right_children":[2,4,6,8,10,12,14,-1,-1,-1,-1,-1,-1,-1,-1],"split_conditions":[6.018843E2,5.9963086E2,-7.087606E-1,5.9835693E2,1.0097515E5,3.1814808E1,-6.470267E-2,1.5978942E-3,-5.373374E-2,7.2106786E-2,-1.6364622E-1,3.328735E-1,5.3633265E-2,-4.4746418E-2,3.8658662E-3],"split_indices":[0,0,2,0,4,1,3,0,0,0,0,0,0,0,0],"split_type":[0,0,0,0,0,0,0,0,0,0,0,0,0,0,0],"sum_hessian":[6.7386226E3,5.0297153E3,1.7089072E3,4.6591294E3,3.705863E2,8.26705E0,1.7006401E3,4.4993745E3,1.5975449E2,3.2110617E2,4.948012E1,7.2112293E0,1.05582E0,4.6910437E2,1.2315358E3],"tree_param":{"num_deleted":"0","num_feature":"5","num_nodes":"15","size_leaf_vector":"1"}},{"base_weights":[1.05121435E-4,-6.1304554E-2,4.1864803E-3,-7.517349E-2,9.4237274E-1,1.753985E-1,-1.6926198E-3,-5.3888885E-3,-1.0321096E-1,3.5607448E-1,-8.39135E-3,9.852843E-2,-3.4497444E-2,2.2126094E-1,-8.480297E-4],"categories":[],"categories_nodes":[],"categories_segments":[],"categories_sizes":[],"default_left":[0,0,0,0,0,0,0,0,0,0,0,0,0,0,0],"id":48,"left_children":[1,3,5,7,9,11,13,-1,-1,-1,-1,-1,-1,-1,-1],"loss_changes":[1.6881008E0,5.9135904E0,6.3573403E0,6.376415E0,1.408256E0,9.355301E0,5.1220365E0,0E0,0E0,0E0,0E0,0E0,0E0,0E0,0E0],"parents":[2147483647,0,0,1,1,2,2,3,3,4,4,5,5,6,6],"right_children":[2,4,6,8,10,12,14,-1,-1,-1,-1,-1,-1,-1,-1],"split_conditions":[-5.821583E-1,6.065232E2,-4.4324824E-1,5.821949E2,6.089905E2,5.718915E2,4.9667596E2,-5.3888885E-3,-1.0321096E-1,3.5607448E-1,-8.39135E-3,9.852843E-2,-3.4497444E-2,2.2126094E-1,-8.480297E-4],"split_indices":[3,0,3,0,0,0,0,0,0,0,0,0,0,0,0],"split_type":[0,0,0,0,0,0,0,0,0,0,0,0,0,0,0],"sum_hessian":[6.733274E3,4.187395E2,6.3145347E3,4.1394467E2,4.7948375E0,2.086737E2,6.105861E3,3.4219653E2,7.174813E1,3.6514292E0,1.1434083E0,1.3657204E2,7.210167E1,8.358781E0,6.097502E3],"tree_param":{"num_deleted":"0","num_feature":"5","num_nodes":"15","size_leaf_vector":"1"}},{"base_weights":[1.67215E-4,-2.0858763E-2,1.4328202E-2,6.8700017E-4,-4.4537783E-1,2.454463E-2,-1.5716952E-1,7.240626E-2,-5.716088E-3,5.134357E-2,-1.9844124E-1,-9.16209E-3,1.7967682E-2,-9.257306E-2,3.889368E-2],"categories":[],"categories_nodes":[],"categories_segments":[],"categories_sizes":[],"default_left":[0,0,0,0,0,0,0,0,0,0,0,0,0,0,0],"id":49,"left_children":[1,3,5,7,9,11,13,-1,-1,-1,-1,-1,-1,-1,-1],"loss_changes":[2.0048614E0,2.478628E1,7.0534782E0,1.2261823E1,1.7551573E1,7.3973737E0,9.8694E0,0E0,0E0,0E0,0E0,0E0,0E0,0E0,0E0],"parents":[2147483647,0,0,1,1,2,2,3,3,4,4,5,5,6,6],"right_children":[2,4,6,8,10,12,14,-1,-1,-1,-1,-1,-1,-1,-1],"split_conditions":[5.708363E2,5.686112E2,4.172247E-1,4.742205E4,-1.3361578E-1,4.409455E4,1.525979E5,7.240626E-2,-5.716088E-3,5.134357E-2,-1.9844124E-1,-9.16209E-3,1.7967682E-2,-9.257306E-2,3.889368E-2],"split_indices":[0,0,2,4,3,4,4,0,0,0,0,0,0,0,0],"split_type":[0,0,0,0,0,0,0,0,0,0,0,0,0,0,0],"sum_hessian":[6.7314E3,2.7088604E3,4.0225398E3,2.5789673E3,1.2989284E2,3.7971912E3,2.2534863E2,1.9465167E2,2.3843157E3,3.3765717E1,9.612713E1,1.4842723E3,2.3129187E3,1.4744026E2,7.790837E1],"tree_param":{"num_deleted":"0","num_feature":"5","num_nodes":"15","size_leaf_vector":"1"}},{"base_weights":[5.426378E-5,-6.175823E-3,4.0962826E-2,-7.624862E-3,7.019996E-1,1.5191899E-1,-7.44862E-2,5.21111E-4,-2.8804561E-2,3.0057746E-1,-3.16535E-1,8.14323E-2,-3.5981856E-2,-3.389909E-2,1.9582671E-1],"categories":[],"categories_nodes":[],"categories_segments":[],"categories_sizes":[],"default_left":[0,0,0,0,0,0,0,0,0,0,0,0,0,0,0],"id":50,"left_children":[1,3,5,7,9,11,13,-1,-1,-1,-1,-1,-1,-1,-1],"loss_changes":[1.7149748E0,5.9978495E0,1.1403525E1,4.823438E0,7.347038E0,1.4778611E1,1.2299086E1,0E0,0E0,0E0,0E0,0E0,0E0,0E0,0E0],"parents":[2147483647,0,0,1,1,2,2,3,3,4,4,5,5,6,6],"right_children":[2,4,6,8,10,12,14,-1,-1,-1,-1,-1,-1,-1,-1],"split_conditions":[3.1283054E-1,8.416803E5,1.155764E5,2.0245428E-1,5.4174225E2,5.887313E2,6.018843E2,5.21111E-4,-2.8804561E-2,3.0057746E-1,-3.16535E-1,8.14323E-2,-3.5981856E-2,-3.389909E-2,1.9582671E-1],"split_indices":[3,4,4,3,0,0,0,0,0,0,0,0,0,0,0],"split_type":[0,0,0,0,0,0,0,0,0,0,0,0,0,0,0],"sum_hessian":[6.7269893E3,5.8386523E3,8.8833673E2,5.8277173E3,1.0935195E1,4.528215E2,4.3551523E2,5.270473E3,5.5724396E2,9.707923E0,1.2272724E0,3.1453738E2,1.3828412E2,4.144147E2,2.1100523E1],"tree_param":{"num_deleted":"0","num_feature":"5","num_nodes":"15","size_leaf_vector":"1"}},{"base_weights":[1.13164926E-4,-9.5628396E-2,2.576627E-3,-3.75572E-1,7.244452E-2,4.4704118E-1,7.8047585E-4,8.037467E-2,-1.9511959E-1,6.5829076E-2,-2.0736234E-1,3.1555432E-1,-4.3476737E-1,-1.14159106E-4,1.2008815E-1],"categories":[],"categories_nodes":[],"categories_segments":[],"categories_sizes":[],"default_left":[0,0,0,0,0,0,0,0,0,0,0,0,0,0,0],"id":51,"left_children":[1,3,5,7,9,11,13,-1,-1,-1,-1,-1,-1,-1,-1],"loss_changes":[1.5861672E0,7.9646964E0,5.2338037E0,1.13951025E1,1.2077874E1,3.1787048E1,3.0294876E0,0E0,0E0,0E0,0E0,0E0,0E0,0E0,0E0],"parents":[2147483647,0,0,1,1,2,2,3,3,4,4,5,5,6,6],"right_children":[2,4,6,8,10,12,14,-1,-1,-1,-1,-1,-1,-1,-1],"split_conditions":[5.0753644E2,2.1543884E5,5.0911578E2,-3.6941925E-1,5.053545E2,2.914831E5,2.22185E0,8.037467E-2,-1.9511959E-1,6.5829076E-2,-2.0736234E-1,3.1555432E-1,-4.3476737E-1,-1.14159106E-4,1.2008815E-1],"split_indices":[0,4,0,2,0,4,2,0,0,0,0,0,0,0,0],"split_type":[0,0,0,0,0,0,0,0,0,0,0,0,0,0,0],"sum_hessian":[6.723114E3,1.6769989E2,6.555414E3,6.2449287E1,1.0525061E2,2.5387112E1,6.530027E3,1.869691E1,4.3752377E1,8.885978E1,1.6390833E1,1.9585651E1,5.8014607E0,6.5121016E3,1.7925451E1],"tree_param":{"num_deleted":"0","num_feature":"5","num_nodes":"15","size_leaf_vector":"1"}},{"base_weights":[6.9042806E-5,-8.642763E-3,2.734952E-2,3.143671E-4,-1.4297536E-1,-2.2809056E-3,1.7821462E-1,5.7412093E-3,-1.210603E-2,-8.8387795E-2,9.3095675E-3,4.3894937E-3,-2.8062218E-1,6.942254E-2,-2.3296653E-1],"categories":[],"categories_nodes":[],"categories_segments":[],"categories_sizes":[],"default_left":[0,0,0,0,0,0,0,0,0,0,0,0,0,0,0],"id":52,"left_children":[1,3,5,7,9,11,13,-1,-1,-1,-1,-1,-1,-1,-1],"loss_changes":[1.5974822E0,6.1301694E0,7.273199E0,3.657692E0,8.413166E0,2.1490093E1,1.3744907E1,0E0,0E0,0E0,0E0,0E0,0E0,0E0,0E0],"parents":[2147483647,0,0,1,1,2,2,3,3,4,4,5,5,6,6],"right_children":[2,4,6,8,10,12,14,-1,-1,-1,-1,-1,-1,-1,-1],"split_conditions":[1.8323265E-1,1.4446986E-1,6.009935E2,6.008714E2,5.9696735E2,6.001374E2,6.189273E-1,5.7412093E-3,-1.210603E-2,-8.8387795E-2,9.3095675E-3,4.3894937E-3,-2.8062218E-1,6.942254E-2,-2.3296653E-1],"split_indices":[2,2,0,0,0,0,2,0,0,0,0,0,0,0,0],"split_type":[0,0,0,0,0,0,0,0,0,0,0,0,0,0,0],"sum_hessian":[6.7196553E3,5.093704E3,1.625951E3,4.776229E3,3.174753E2,1.3598556E3,2.6609546E2,3.2653833E3,1.5108457E3,1.6926472E2,1.4821059E2,1.3366143E3,2.3241295E1,2.527703E2,1.3325161E1],"tree_param":{"num_deleted":"0","num_feature":"5","num_nodes":"15","size_leaf_vector":"1"}},{"base_weights":[-7.813349E-6,4.8103347E-2,-6.177221E-3,-1.0497597E0,6.735431E-2,-2.3518966E-3,-2.419442E-1,-6.43767E-2,-3.8918054E-1,2.4086772E-1,9.3983235E-3,-1.6769025E-3,1.1198275E-1,-3.1315672E-1,-3.0928275E-3],"categories":[],"categories_nodes":[],"categories_segments":[],"categories_sizes":[],"default_left":[0,0,0,0,0,0,0,0,0,0,0,0,0,0,0],"id":53,"left_children":[1,3,5,7,9,11,13,-1,-1,-1,-1,-1,-1,-1,-1],"loss_changes":[1.9943845E0,1.621129E1,5.370641E0,2.454523E0,1.9888035E1,7.130791E0,1.7649685E1,0E0,0E0,0E0,0E0,0E0,0E0,0E0,0E0],"parents":[2147483647,0,0,1,1,2,2,3,3,4,4,5,5,6,6],"right_children":[2,4,6,8,10,12,14,-1,-1,-1,-1,-1,-1,-1,-1],"split_conditions":[3.16991E4,5.737672E2,6.09982E2,2.79508E4,5.927273E2,6.097516E2,6.1021326E2,-6.43767E-2,-3.8918054E-1,2.4086772E-1,9.3983235E-3,-1.6769025E-3,1.1198275E-1,-3.1315672E-1,-3.0928275E-3],"split_indices":[4,0,0,4,0,0,0,0,0,0,0,0,0,0,0],"split_type":[0,0,0,0,0,0,0,0,0,0,0,0,0,0,0],"sum_hessian":[6.71723E3,7.6269275E2,5.954537E3,1.2220827E1,7.504719E2,5.860461E3,9.407613E1,3.2205815E0,9.000246E0,3.404777E1,7.1642413E2,5.8113545E3,4.91067E1,2.0298157E1,7.377798E1],"tree_param":{"num_deleted":"0","num_feature":"5","num_nodes":"15","size_leaf_vector":"1"}},{"base_weights":[-9.637426E-5,7.89861E-3,-2.945289E-2,3.1193208E-3,2.3925424E-1,-1.7100568E-1,-5.022407E-3,-1.0202461E-2,7.2126123E-3,2.5026515E-1,6.0115196E-2,-4.0958613E-2,-3.473441E-1,2.724588E-1,-3.5912204E-3],"categories":[],"categories_nodes":[],"categories_segments":[],"categories_sizes":[],"default_left":[0,0,0,0,0,0,0,0,0,0,0,0,0,0,0],"id":54,"left_children":[1,3,5,7,9,11,13,-1,-1,-1,-1,-1,-1,-1,-1],"loss_changes":[1.5763196E0,5.8358917E0,4.9705787E0,4.0190806E0,2.3032875E0,7.039713E0,7.7967086E0,0E0,0E0,0E0,0E0,0E0,0E0,0E0,0E0],"parents":[2147483647,0,0,1,1,2,2,3,3,4,4,5,5,6,6],"right_children":[2,4,6,8,10,12,14,-1,-1,-1,-1,-1,-1,-1,-1],"split_conditions":[6.490431E1,6.5586305E-1,6.688557E1,5.669321E2,4.9926703E2,3.8467675E5,-3.1748426E-1,-1.0202461E-2,7.2126123E-3,2.5026515E-1,6.0115196E-2,-4.0958613E-2,-3.473441E-1,2.724588E-1,-3.5912204E-3],"split_indices":[1,2,1,0,0,4,2,0,0,0,0,0,0,0,0],"split_type":[0,0,0,0,0,0,0,0,0,0,0,0,0,0,0],"sum_hessian":[6.7141855E3,5.2776074E3,1.4365782E3,5.1717837E3,1.0582399E2,2.1056174E2,1.2260165E3,1.8638112E3,3.3079724E3,5.23491E0,1.0058908E2,2.0455342E2,6.0083094E0,8.27841E0,1.2177382E3],"tree_param":{"num_deleted":"0","num_feature":"5","num_nodes":"15","size_leaf_vector":"1"}},{"base_weights":[-3.213728E-5,-2.0709861E-2,1.2733852E-2,-5.8589084E-3,-2.9029346E-1,3.839181E-3,2.63567E-1,3.3370715E-2,-1.3172699E-2,1.8049438E-1,-1.20478906E-1,2.7390644E-3,-1.6425297E-1,1.7073205E-1,-1.1836477E-1],"categories":[],"categories_nodes":[],"categories_segments":[],"categories_sizes":[],"default_left":[0,0,0,0,0,0,0,0,0,0,0,0,0,0,0],"id":55,"left_children":[1,3,5,7,9,11,13,-1,-1,-1,-1,-1,-1,-1,-1],"loss_changes":[1.7725698E0,1.0260342E1,9.261938E0,1.0833479E1,1.3525773E1,1.1704788E1,2.8811718E1,0E0,0E0,0E0,0E0,0E0,0E0,0E0,0E0],"parents":[2147483647,0,0,1,1,2,2,3,3,4,4,5,5,6,6],"right_children":[2,4,6,8,10,12,14,-1,-1,-1,-1,-1,-1,-1,-1],"split_conditions":[5.743035E4,5.54881E4,6.0785693E2,-8.424801E-2,-2.2909589E-1,6.071142E2,6.09982E2,3.3370715E-2,-1.3172699E-2,1.8049438E-1,-1.20478906E-1,2.7390644E-3,-1.6425297E-1,1.7073205E-1,-1.1836477E-1],"split_indices":[4,4,0,2,2,0,0,0,0,0,0,0,0,0,0],"split_type":[0,0,0,0,0,0,0,0,0,0,0,0,0,0,0],"sum_hessian":[6.713003E3,2.562221E3,4.150782E3,2.4294102E3,1.3281079E2,4.0096145E3,1.4116766E2,5.953544E2,1.8340558E3,1.4245664E1,1.1856513E2,3.972476E3,3.713851E1,9.650096E1,4.46667E1],"tree_param":{"num_deleted":"0","num_feature":"5","num_nodes":"15","size_leaf_vector":"1"}},{"base_weights":[-3.4701865E-5,-2.5454704E-2,1.5043555E-2,-1.7388217E-1,-7.962647E-3,1.12100415E-1,3.2172576E-3,1.8076368E-2,-1.1945107E-1,-8.347455E-4,-2.9576245E-1,2.2265747E-2,1.8120159E-1,-4.595004E-2,4.967735E-3],"categories":[],"categories_nodes":[],"categories_segments":[],"categories_sizes":[],"default_left":[0,0,0,0,0,0,0,0,0,0,0,0,0,0,0],"id":56,"left_children":[1,3,5,7,9,11,13,-1,-1,-1,-1,-1,-1,-1,-1],"loss_changes":[2.572476E0,6.486372E0,4.835113E0,1.3855806E1,1.1326551E1,8.480864E0,7.839673E0,0E0,0E0,0E0,0E0,0E0,0E0,0E0,0E0],"parents":[2147483647,0,0,1,1,2,2,3,3,4,4,5,5,6,6],"right_children":[2,4,6,8,10,12,14,-1,-1,-1,-1,-1,-1,-1,-1],"split_conditions":[-7.834923E-2,4.115495E4,-5.5979952E-2,3.320905E4,6.098216E2,6.097516E2,3.839785E1,1.8076368E-2,-1.1945107E-1,-8.347455E-4,-2.9576245E-1,2.2265747E-2,1.8120159E-1,-4.595004E-2,4.967735E-3],"split_indices":[3,4,2,4,0,0,1,0,0,0,0,0,0,0,0],"split_type":[0,0,0,0,0,0,0,0,0,0,0,0,0,0,0],"sum_hessian":[6.7095786E3,2.497845E3,4.2117334E3,2.6239258E2,2.2354524E3,4.5653467E2,3.755199E3,1.2873552E2,1.3365707E2,2.2246707E3,1.0781604E1,4.249597E2,3.1574986E1,2.943658E2,3.460833E3],"tree_param":{"num_deleted":"0","num_feature":"5","num_nodes":"15","size_leaf_vector":"1"}},{"base_weights":[-9.243904E-5,-3.296215E-3,7.40408E-2,4.4866424E-4,-4.507318E-1,9.982283E-2,-5.11805E-1,-2.2408705E-2,1.634739E-3,-1.6781838E-1,3.3524528E-1,7.2433546E-2,-4.0769793E-2],"categories":[],"categories_nodes":[],"categories_segments":[],"categories_sizes":[],"default_left":[0,0,0,0,0,0,0,0,0,0,0,0,0],"id":57,"left_children":[1,3,5,7,9,11,-1,-1,-1,-1,-1,-1,-1],"loss_changes":[1.5935036E0,1.0776508E1,1.2925979E1,2.3973436E0,9.721814E0,9.210526E0,0E0,0E0,0E0,0E0,0E0,0E0,0E0],"parents":[2147483647,0,0,1,1,2,2,3,3,4,4,5,5],"right_children":[2,4,6,8,10,12,-1,-1,-1,-1,-1,-1,-1],"split_conditions":[6.097516E2,6.094549E2,2.764681E-1,2.83901E4,5.743035E4,5.7333387E-2,-5.11805E-1,-2.2408705E-2,1.634739E-3,-1.6781838E-1,3.3524528E-1,7.2433546E-2,-4.0769793E-2],"split_indices":[0,0,3,4,4,3,0,0,0,0,0,0,0],"split_type":[0,0,0,0,0,0,0,0,0,0,0,0,0],"sum_hessian":[6.707282E3,6.430341E3,2.76941E2,6.3779585E3,5.2382286E1,2.7391757E2,3.0234494E0,3.9706955E2,5.980889E3,4.958949E1,2.7927983E0,1.7109755E2,1.0282002E2],"tree_param":{"num_deleted":"0","num_feature":"5","num_nodes":"13","size_leaf_vector":"1"}},{"base_weights":[-1.2070519E-4,-1.5006815E-2,1.641035E-2,-1.5241401E-1,-4.1498994E-3,2.4225259E-1,2.5033734E-3,-6.0705595E-2,2.3610285E-1,1.3245992E-1,-5.2231173E-3,1.6848937E-1,4.1799176E-2,7.1915E-2,-1.9470492E-3],"categories":[],"categories_nodes":[],"categories_segments":[],"categories_sizes":[],"default_left":[0,0,0,0,0,0,0,0,0,0,0,0,0,0,0],"id":58,"left_children":[1,3,5,7,9,11,13,-1,-1,-1,-1,-1,-1,-1,-1],"loss_changes":[1.6505888E0,5.264461E0,9.981213E0,1.2282132E1,1.9344536E1,5.981247E0,6.390599E0,0E0,0E0,0E0,0E0,0E0,0E0,0E0,0E0],"parents":[2147483647,0,0,1,1,2,2,3,3,4,4,5,5,6,6],"right_children":[2,4,6,8,10,12,14,-1,-1,-1,-1,-1,-1,-1,-1],"split_conditions":[1.5675463E-2,2.83901E4,3.2402962E-2,6.106116E2,3.104035E4,2.880385E4,-1.8207913E-2,-6.0705595E-2,2.3610285E-1,1.3245992E-1,-5.2231173E-3,1.6848937E-1,4.1799176E-2,7.1915E-2,-1.9470492E-3],"split_indices":[3,4,3,0,4,4,2,0,0,0,0,0,0,0,0],"split_type":[0,0,0,0,0,0,0,0,0,0,0,0,0,0,0],"sum_hessian":[6.705444E3,3.5283127E3,3.1771309E3,2.574125E2,3.2709004E3,1.8334134E2,2.9937896E3,2.4516463E2,1.2247886E1,9.357464E1,3.1773257E3,4.3597256E1,1.3974408E2,1.0842118E2,2.8853684E3],"tree_param":{"num_deleted":"0","num_feature":"5","num_nodes":"15","size_leaf_vector":"1"}},{"base_weights":[2.1426953E-5,-6.475725E-2,3.546171E-3,-2.5840992E-1,2.803828E-2,7.593208E-2,-2.568386E-3,-9.8211646E-2,1.3773072E-1,8.889358E-2,-1.7169679E-2,3.2808133E-3,9.889656E-2,-5.3304706E-2,2.8781078E-4],"categories":[],"categories_nodes":[],"categories_segments":[],"categories_sizes":[],"default_left":[0,0,0,0,0,0,0,0,0,0,0,0,0,0,0],"id":59,"left_children":[1,3,5,7,9,11,13,-1,-1,-1,-1,-1,-1,-1,-1],"loss_changes":[1.5309336E0,6.2249827E0,2.814719E0,5.7014413E0,5.388611E0,8.165119E0,3.6230888E0,0E0,0E0,0E0,0E0,0E0,0E0,0E0,0E0],"parents":[2147483647,0,0,1,1,2,2,3,3,4,4,5,5,6,6],"right_children":[2,4,6,8,10,12,14,-1,-1,-1,-1,-1,-1,-1,-1],"split_conditions":[2.1963541E1,6.27495E4,2.9989046E1,6.1021326E2,8.869975E4,6.024889E2,-8.370866E-1,-9.8211646E-2,1.3773072E-1,8.889358E-2,-1.7169679E-2,3.2808133E-3,9.889656E-2,-5.3304706E-2,2.8781078E-4],"split_indices":[1,4,1,0,4,0,2,0,0,0,0,0,0,0,0],"split_type":[0,0,0,0,0,0,0,0,0,0,0,0,0,0,0],"sum_hessian":[6.7029624E3,3.4500458E2,6.3579575E3,1.1118684E2,2.3381775E2,4.9434454E2,5.8636133E3,1.0193345E2,9.253384E0,5.579706E1,1.7802069E2,3.943638E2,9.9980736E1,1.1481774E2,5.7487954E3],"tree_param":{"num_deleted":"0","num_feature":"5","num_nodes":"15","size_leaf_vector":"1"}},{"base_weights":[2.1665615E-5,8.055219E-3,-2.6983174E-2,-5.8314838E-3,7.663022E-2,3.058242E-1,-4.460067E-2,9.43395E-4,-1.1067634E-1,1.7744783E-2,2.2009039E-1,4.4830337E-1,3.3199165E-2,-4.0764276E-2,4.811007E-3],"categories":[],"categories_nodes":[],"categories_segments":[],"categories_sizes":[],"default_left":[0,0,0,0,0,0,0,0,0,0,0,0,0,0,0],"id":60,"left_children":[1,3,5,7,9,11,13,-1,-1,-1,-1,-1,-1,-1,-1],"loss_changes":[1.4540133E0,4.9194975E0,9.023535E0,1.4004348E1,9.948125E0,1.7783817E1,8.084895E0,0E0,0E0,0E0,0E0,0E0,0E0,0E0,0E0],"parents":[2147483647,0,0,1,1,2,2,3,3,4,4,5,5,6,6],"right_children":[2,4,6,8,10,12,14,-1,-1,-1,-1,-1,-1,-1,-1],"split_conditions":[6.026608E2,5.9677765E2,-2.5840425E-1,5.945586E2,8.315177E1,6.563325E4,6.055739E2,9.43395E-4,-1.1067634E-1,1.7744783E-2,2.2009039E-1,4.4830337E-1,3.3199165E-2,-4.0764276E-2,4.811007E-3],"split_indices":[0,0,3,0,1,4,0,0,0,0,0,0,0,0,0],"split_type":[0,0,0,0,0,0,0,0,0,0,0,0,0,0,0],"sum_hessian":[6.7002236E3,5.164547E3,1.5356771E3,4.2955884E3,8.689583E2,7.638321E1,1.459294E3,4.1929243E3,1.02664185E2,8.474989E2,2.1459412E1,9.834486E0,6.654873E1,5.8197656E2,8.773174E2],"tree_param":{"num_deleted":"0","num_feature":"5","num_nodes":"15","size_leaf_vector":"1"}},{"base_weights":[1.10017216E-4,5.822222E-3,-5.1325757E-2,-8.080357E-4,1.6862574E-1,-1.0734865E-1,1.3803327E-1,1.4987672E-3,-9.389909E-2,-3.2568792E-1,6.813327E-2,-1.0855112E-2,-1.5295535E-1,1.5100046E-1,-2.470745E-2],"categories":[],"categories_nodes":[],"categories_segments":[],"categories_sizes":[],"default_left":[0,0,0,0,0,0,0,0,0,0,0,0,0,0,0],"id":61,"left_children":[1,3,5,7,9,11,13,-1,-1,-1,-1,-1,-1,-1,-1],"loss_changes":[1.9683248E0,6.508699E0,7.11848E0,1.0501064E1,1.7555103E1,1.4799273E1,1.2385027E1,0E0,0E0,0E0,0E0,0E0,0E0,0E0,0E0],"parents":[2147483647,0,0,1,1,2,2,3,3,4,4,5,5,6,6],"right_children":[2,4,6,8,10,12,14,-1,-1,-1,-1,-1,-1,-1,-1],"split_conditions":[6.072185E2,6.055739E2,1.0738247E-1,6.050076E2,-2.7709353E-1,6.2516354E-2,6.089905E2,1.4987672E-3,-9.389909E-2,-3.2568792E-1,6.813327E-2,-1.0855112E-2,-1.5295535E-1,1.5100046E-1,-2.470745E-2],"split_indices":[0,0,3,0,3,3,0,0,0,0,0,0,0,0,0],"split_type":[0,0,0,0,0,0,0,0,0,0,0,0,0,0,0],"sum_hessian":[6.6972563E3,6.028633E3,6.686236E2,5.7936772E3,2.3495549E2,5.1630505E2,1.5231856E2,5.6888984E3,1.0477872E2,9.685308E0,2.2527017E2,4.3966028E2,7.6644775E1,5.6833126E1,9.5485435E1],"tree_param":{"num_deleted":"0","num_feature":"5","num_nodes":"15","size_leaf_vector":"1"}},{"base_weights":[-2.3793857E-6,4.142568E-2,-6.782876E-3,5.5620484E-2,-7.5181717E-1,-1.3616742E-3,-1.9896054E-1,1.20264115E-2,2.1706057E-1,3.7402287E-1,-3.7812686E-1,-1.3206326E-3,6.2180236E-2,-1.0767189E-1,2.2490295E-2],"categories":[],"categories_nodes":[],"categories_segments":[],"categories_sizes":[],"default_left":[0,0,0,0,0,0,0,0,0,0,0,0,0,0,0],"id":62,"left_children":[1,3,5,7,9,11,13,-1,-1,-1,-1,-1,-1,-1,-1],"loss_changes":[1.8804103E0,1.0643369E1,5.993021E0,9.576693E0,1.846635E1,3.5504694E0,6.941529E0,0E0,0E0,0E0,0E0,0E0,0E0,0E0,0E0],"parents":[2147483647,0,0,1,1,2,2,3,3,4,4,5,5,6,6],"right_children":[2,4,6,8,10,12,14,-1,-1,-1,-1,-1,-1,-1,-1],"split_conditions":[3.42946E4,2.4720839E-1,6.0935724E2,1.8268494E-1,5.818117E2,6.085031E2,6.14667E4,1.20264115E-2,2.1706057E-1,3.7402287E-1,-3.7812686E-1,-1.3206326E-3,6.2180236E-2,-1.0767189E-1,2.2490295E-2],"split_indices":[4,2,0,3,0,0,4,0,0,0,0,0,0,0,0],"split_type":[0,0,0,0,0,0,0,0,0,0,0,0,0,0,0],"sum_hessian":[6.692166E3,9.405294E2,5.7516367E3,9.249084E2,1.5621031E1,5.594818E3,1.5681894E2,9.0492426E2,1.998412E1,2.8744836E0,1.2746548E1,5.5154185E3,7.939947E1,9.881246E1,5.8006477E1],"tree_param":{"num_deleted":"0","num_feature":"5","num_nodes":"15","size_leaf_vector":"1"}},{"base_weights":[3.7860715E-5,-3.125796E-3,7.3996596E-2,3.8948483E-3,-1.1110655E-1,9.568179E-2,-4.25681E-1,-1.9182463E-4,3.4664564E-2,-4.4662163E-2,2.8735173E-1,-3.3549333E-1,3.5180606E-2],"categories":[],"categories_nodes":[],"categories_segments":[],"categories_sizes":[],"default_left":[0,0,0,0,0,0,0,0,0,0,0,0,0],"id":63,"left_children":[1,3,5,7,9,11,-1,-1,-1,-1,-1,-1,-1],"loss_changes":[1.5658419E0,4.865649E0,9.023304E0,3.05128E0,1.596097E1,7.246919E0,0E0,0E0,0E0,0E0,0E0,0E0,0E0],"parents":[2147483647,0,0,1,1,2,2,3,3,4,4,5,5],"right_children":[2,4,6,8,10,12,-1,-1,-1,-1,-1,-1,-1],"split_conditions":[6.097516E2,6.072185E2,2.9872996E-1,6.055739E2,1.312378E5,-2.6283392E-1,-4.25681E-1,-1.9182463E-4,3.4664564E-2,-4.4662163E-2,2.8735173E-1,-3.3549333E-1,3.5180606E-2],"split_indices":[0,0,2,0,4,2,0,0,0,0,0,0,0],"split_type":[0,0,0,0,0,0,0,0,0,0,0,0,0],"sum_hessian":[6.690213E3,6.4166904E3,2.7352243E2,6.025867E3,3.908232E2,2.7052887E2,2.9935825E0,5.7916616E3,2.3420549E2,3.7831747E2,1.2505747E1,3.838808E0,2.6669006E2],"tree_param":{"num_deleted":"0","num_feature":"5","num_nodes":"13","size_leaf_vector":"1"}},{"base_weights":[-4.7852987E-5,1.3195662E-1,-1.5420937E-3,-1.38598E-1,3.865346E-1,-1.6239742E-2,1.6101127E-2,1.2528335E-1,-2.4437086E-1,-1.7837265E-1,2.2978678E-1,-9.565575E-3,2.5667505E-2,-1.020447E-1,6.8928446E-3],"categories":[],"categories_nodes":[],"categories_segments":[],"categories_sizes":[],"default_left":[0,0,0,0,0,0,0,0,0,0,0,0,0,0,0],"id":64,"left_children":[1,3,5,7,9,11,13,-1,-1,-1,-1,-1,-1,-1,-1],"loss_changes":[1.3194491E0,5.2106395E0,1.715477E0,1.4264177E1,1.4913597E1,5.7506146E0,7.371422E0,0E0,0E0,0E0,0E0,0E0,0E0,0E0,0E0],"parents":[2147483647,0,0,1,1,2,2,3,3,4,4,5,5,6,6],"right_children":[2,4,6,8,10,12,14,-1,-1,-1,-1,-1,-1,-1,-1],"split_conditions":[1.85721E4,6.040855E2,2.9176438E-2,2.4538478E-2,-8.410813E-3,1.865658E5,2.20691E4,1.2528335E-1,-2.4437086E-1,-1.7837265E-1,2.2978678E-1,-9.565575E-3,2.5667505E-2,-1.020447E-1,6.8928446E-3],"split_indices":[4,0,2,2,2,4,4,0,0,0,0,0,0,0,0],"split_type":[0,0,0,0,0,0,0,0,0,0,0,0,0,0,0],"sum_hessian":[6.6873105E3,7.387329E1,6.6134375E3,3.603374E1,3.7839546E1,3.6079346E3,3.0055027E3,1.9977707E1,1.6056034E1,1.0394451E1,2.7445097E1,3.127891E3,4.8004358E2,5.598515E1,2.9495176E3],"tree_param":{"num_deleted":"0","num_feature":"5","num_nodes":"15","size_leaf_vector":"1"}},{"base_weights":[-2.1443433E-5,4.188858E-2,-5.33279E-3,-8.587512E-1,5.7188407E-2,5.69792E-3,-7.0456676E-2,-1.0624882E-1,-3.982996E-1,4.002983E-1,1.3701168E-2,2.2607021E-2,-1.8892818E-3,-1.9527633E-1,-1.3922719E-2],"categories":[],"categories_nodes":[],"categories_segments":[],"categories_sizes":[],"default_left":[0,0,0,0,0,0,0,0,0,0,0,0,0,0,0],"id":65,"left_children":[1,3,5,7,9,11,13,-1,-1,-1,-1,-1,-1,-1,-1],"loss_changes":[1.4880185E0,1.0409819E1,4.2623544E0,2.516245E0,1.0828264E1,4.240648E0,1.1966375E1,0E0,0E0,0E0,0E0,0E0,0E0,0E0,0E0],"parents":[2147483647,0,0,1,1,2,2,3,3,4,4,5,5,6,6],"right_children":[2,4,6,8,10,12,14,-1,-1,-1,-1,-1,-1,-1,-1],"split_conditions":[3.16991E4,5.737672E2,6.036229E2,-8.424801E-2,5.746345E2,4.742205E4,6.037976E2,-1.0624882E-1,-3.982996E-1,4.002983E-1,1.3701168E-2,2.2607021E-2,-1.8892818E-3,-1.9527633E-1,-1.3922719E-2],"split_indices":[4,0,0,2,0,4,0,0,0,0,0,0,0,0,0],"split_type":[0,0,0,0,0,0,0,0,0,0,0,0,0,0,0],"sum_hessian":[6.6827563E3,7.508858E2,5.9318706E3,1.1621912E1,7.392639E2,5.0734414E3,8.584291E2,6.443491E0,5.1784205E0,5.580941E0,7.336829E2,7.445439E2,4.328898E3,3.3111492E1,8.2531757E2],"tree_param":{"num_deleted":"0","num_feature":"5","num_nodes":"15","size_leaf_vector":"1"}},{"base_weights":[-5.685365E-5,7.2077108E-3,-2.6758144E-2,5.019707E-3,2.6185995E-1,6.3990414E-2,-5.8770157E-2,-2.0274911E-2,4.1478407E-3,2.7328762E-1,1.0715045E-2,-9.178718E-2,4.511531E-2,-1.1014592E-2,-1.0940128E-1],"categories":[],"categories_nodes":[],"categories_segments":[],"categories_sizes":[],"default_left":[0,0,0,0,0,0,0,0,0,0,0,0,0,0,0],"id":66,"left_children":[1,3,5,7,9,11,13,-1,-1,-1,-1,-1,-1,-1,-1],"loss_changes":[1.2962474E0,2.925747E0,4.1558404E0,3.3318105E0,6.533839E0,1.1973477E1,7.1183043E0,0E0,0E0,0E0,0E0,0E0,0E0,0E0,0E0],"parents":[2147483647,0,0,1,1,2,2,3,3,4,4,5,5,6,6],"right_children":[2,4,6,8,10,12,14,-1,-1,-1,-1,-1,-1,-1,-1],"split_conditions":[6.490431E1,1.0195005E0,4.54622E4,5.314165E2,2.4306375E5,6.763573E1,6.065232E2,-2.0274911E-2,4.1478407E-3,2.7328762E-1,1.0715045E-2,-9.178718E-2,4.511531E-2,-1.1014592E-2,-1.0940128E-1],"split_indices":[1,2,4,0,4,1,0,0,0,0,0,0,0,0,0],"split_type":[0,0,0,0,0,0,0,0,0,0,0,0,0,0,0],"sum_hessian":[6.6806147E3,5.252349E3,1.4282656E3,5.2086157E3,4.3733368E1,3.7218533E2,1.0560803E3,5.627194E2,4.645896E3,1.0517303E1,3.3216064E1,6.998046E1,3.0220486E2,9.861042E2,6.997617E1],"tree_param":{"num_deleted":"0","num_feature":"5","num_nodes":"15","size_leaf_vector":"1"}},{"base_weights":[-1.2822212E-5,2.0213604E-2,-8.068452E-3,1.535564E-1,-1.4850906E-2,-7.968433E-1,1.0211118E-3,-1.9431527E-3,1.233029E-1,-5.6082774E-2,8.187574E-3,-2.820475E-1,3.3893654E-1,2.754035E-1,-9.827128E-6],"categories":[],"categories_nodes":[],"categories_segments":[],"categories_sizes":[],"default_left":[0,0,0,0,0,0,0,0,0,0,0,0,0,0,0],"id":67,"left_children":[1,3,5,7,9,11,13,-1,-1,-1,-1,-1,-1,-1,-1],"loss_changes":[1.0885693E0,8.899687E0,3.4257202E1,1.6330883E1,1.0939146E1,1.6092228E1,4.5657864E0,0E0,0E0,0E0,0E0,0E0,0E0,0E0,0E0],"parents":[2147483647,0,0,1,1,2,2,3,3,4,4,5,5,6,6],"right_children":[2,4,6,8,10,12,14,-1,-1,-1,-1,-1,-1,-1,-1],"split_conditions":[5.610321E2,7.144295E4,5.6133453E2,5.571655E2,9.177155E4,2.109475E5,-2.0404682E0,-1.9431527E-3,1.233029E-1,-5.6082774E-2,8.187574E-3,-2.820475E-1,3.3893654E-1,2.754035E-1,-9.827128E-6],"split_indices":[0,4,0,0,4,4,3,0,0,0,0,0,0,0,0],"split_type":[0,0,0,0,0,0,0,0,0,0,0,0,0,0,0],"sum_hessian":[6.678937E3,1.901944E3,4.776993E3,3.9530493E2,1.506639E3,5.343393E1,4.723559E3,2.4437541E2,1.5092953E2,2.9570038E2,1.2109387E3,5.0210938E1,3.2229888E0,4.4235926E0,4.7191353E3],"tree_param":{"num_deleted":"0","num_feature":"5","num_nodes":"15","size_leaf_vector":"1"}},{"base_weights":[4.8956295E-5,6.7135394E-3,-2.9400552E-2,2.846464E-1,2.7346981E-3,-4.913693E-2,1.7889042E-1,-3.8966233E-1,1.2906171E-1,-4.001257E-1,2.1046875E-3,4.599466E-3,-4.9739894E-2,-3.2866547E-1,6.870096E-2],"categories":[],"categories_nodes":[],"categories_segments":[],"categories_sizes":[],"default_left":[0,0,0,0,0,0,0,0,0,0,0,0,0,0,0],"id":68,"left_children":[1,3,5,7,9,11,13,-1,-1,-1,-1,-1,-1,-1,-1],"loss_changes":[1.3106595E0,6.0211587E0,5.0748835E0,1.8271786E1,3.0731445E1,8.474832E0,7.0767965E0,0E0,0E0,0E0,0E0,0E0,0E0,0E0,0E0],"parents":[2147483647,0,0,1,1,2,2,3,3,4,4,5,5,6,6],"right_children":[2,4,6,8,10,12,14,-1,-1,-1,-1,-1,-1,-1,-1],"split_conditions":[1.4526225E5,5.121636E2,7.793206E1,7.02473E4,5.148076E2,5.4106995E1,1.4999016E5,-3.8966233E-1,1.2906171E-1,-4.001257E-1,2.1046875E-3,4.599466E-3,-4.9739894E-2,-3.2866547E-1,6.870096E-2],"split_indices":[4,0,1,4,0,1,4,0,0,0,0,0,0,0,0],"split_type":[0,0,0,0,0,0,0,0,0,0,0,0,0,0,0],"sum_hessian":[6.675878E3,5.444525E3,1.2313534E3,7.584727E1,5.3686772E3,1.1254744E3,1.05878975E2,5.718047E0,7.012922E1,1.6150034E1,5.3525273E3,7.254533E2,4.000211E2,3.2165139E0,1.0266246E2],"tree_param":{"num_deleted":"0","num_feature":"5","num_nodes":"15","size_leaf_vector":"1"}},{"base_weights":[-1.5984206E-4,-1.856606E-2,1.1146093E-2,-1.3689885E-1,1.41972415E-2,4.8586917E-3,1.9485176E-1,-2.6806604E-2,-3.5659984E-1,4.6731976E-1,2.3427126E-3,2.218679E-3,-1.9639835E-1,1.1479933E-1,-6.770037E-2],"categories":[],"categories_nodes":[],"categories_segments":[],"categories_sizes":[],"default_left":[0,0,0,0,0,0,0,0,0,0,0,0,0,0,0],"id":69,"left_children":[1,3,5,7,9,11,13,-1,-1,-1,-1,-1,-1,-1,-1],"loss_changes":[1.3886437E0,9.846232E0,4.77374E0,2.7430424E1,1.9605001E1,6.6941204E0,1.0888615E1,0E0,0E0,0E0,0E0,0E0,0E0,0E0,0E0],"parents":[2147483647,0,0,1,1,2,2,3,3,4,4,5,5,6,6],"right_children":[2,4,6,8,10,12,14,-1,-1,-1,-1,-1,-1,-1,-1],"split_conditions":[5.743035E4,5.760994E2,6.0785693E2,5.748529E2,5.7722174E2,6.074625E2,6.09982E2,-2.6806604E-2,-3.5659984E-1,4.6731976E-1,2.3427126E-3,2.218679E-3,-1.9639835E-1,1.1479933E-1,-6.770037E-2],"split_indices":[4,0,0,0,0,0,0,0,0,0,0,0,0,0,0],"split_type":[0,0,0,0,0,0,0,0,0,0,0,0,0,0,0],"sum_hessian":[6.6709854E3,2.538169E3,4.1328164E3,5.496811E2,1.9884878E3,3.9970422E3,1.3577396E2,5.269462E2,2.2734827E1,7.194879E0,1.9812928E3,3.9827112E3,1.4331083E1,9.391819E1,4.185576E1],"tree_param":{"num_deleted":"0","num_feature":"5","num_nodes":"15","size_leaf_vector":"1"}},{"base_weights":[-1.3447744E-4,-9.177854E-2,2.2121586E-3,-5.9156485E-2,-1.0910637E0,1.6534147E-1,-4.2218584E-4,-9.184491E-2,2.815563E-2,-3.6440337E-1,-1.0867404E-1,1.3556026E-1,-3.271459E-1,-1.6650605E-3,6.0147136E-2],"categories":[],"categories_nodes":[],"categories_segments":[],"categories_sizes":[],"default_left":[0,0,0,0,0,0,0,0,0,0,0,0,0,0,0],"id":70,"left_children":[1,3,5,7,9,11,13,-1,-1,-1,-1,-1,-1,-1,-1],"loss_changes":[1.4341574E0,5.363062E0,2.7943792E0,6.1620545E0,2.9026031E-2,3.7676918E1,6.5949297E0,0E0,0E0,0E0,0E0,0E0,0E0,0E0,0E0],"parents":[2147483647,0,0,1,1,2,2,3,3,4,4,5,5,6,6],"right_children":[2,4,6,8,10,12,14,-1,-1,-1,-1,-1,-1,-1,-1],"split_conditions":[5.0753644E2,1.5851822E0,5.121636E2,2.1543884E5,6.8846006E5,3.3289866E5,3.4631825E5,-9.184491E-2,2.815563E-2,-3.6440337E-1,-1.0867404E-1,1.3556026E-1,-3.271459E-1,-1.6650605E-3,6.0147136E-2],"split_indices":[0,2,0,4,4,4,4,0,0,0,0,0,0,0,0],"split_type":[0,0,0,0,0,0,0,0,0,0,0,0,0,0,0],"sum_hessian":[6.666841E3,1.654974E2,6.5013433E3,1.612912E2,4.206216E0,1.02338905E2,6.3990044E3,6.1314213E1,9.997698E1,3.0262864E0,1.1799296E0,8.3848465E1,1.8490438E1,6.240692E3,1.583126E2],"tree_param":{"num_deleted":"0","num_feature":"5","num_nodes":"15","size_leaf_vector":"1"}},{"base_weights":[-2.1406531E-4,-5.6171115E-2,3.4922077E-3,-3.5140273E-1,-1.54142445E-2,2.4707916E-1,9.1808033E-4,7.90482E-2,-2.1444471E-1,2.5838548E-1,-2.6884848E-2,1.3371593E-1,-4.2356983E-2,1.8872052E-1,-5.123462E-6],"categories":[],"categories_nodes":[],"categories_segments":[],"categories_sizes":[],"default_left":[0,0,0,0,0,0,0,0,0,0,0,0,0,0,0],"id":71,"left_children":[1,3,5,7,9,11,13,-1,-1,-1,-1,-1,-1,-1,-1],"loss_changes":[1.3824399E0,4.977085E0,3.9198017E0,1.1402487E1,2.3814653E1,5.104803E0,3.6346312E0,0E0,0E0,0E0,0E0,0E0,0E0,0E0,0E0],"parents":[2147483647,0,0,1,1,2,2,3,3,4,4,5,5,6,6],"right_children":[2,4,6,8,10,12,14,-1,-1,-1,-1,-1,-1,-1,-1],"split_conditions":[-5.821583E-1,5.1008356E2,-6.0781914E-1,4.9926703E2,5.1602515E2,5.686112E2,4.9667596E2,7.90482E-2,-2.1444471E-1,2.5838548E-1,-2.6884848E-2,1.3371593E-1,-4.2356983E-2,1.8872052E-1,-5.123462E-6],"split_indices":[3,0,2,0,0,0,0,0,0,0,0,0,0,0,0],"split_type":[0,0,0,0,0,0,0,0,0,0,0,0,0,0,0],"sum_hessian":[6.6638804E3,4.130795E2,6.2508013E3,4.9183777E1,3.6389572E2,6.437189E1,6.186429E3,1.8372444E1,3.0811333E1,2.7568249E1,3.3632748E2,4.248723E1,2.188466E1,8.197867E0,6.1782314E3],"tree_param":{"num_deleted":"0","num_feature":"5","num_nodes":"15","size_leaf_vector":"1"}},{"base_weights":[-8.67707E-5,6.036569E-3,-2.7281806E-2,5.2179813E-1,4.138382E-3,-5.8338568E-2,1.1525664E-1,-1.14368126E-1,3.8212925E-1,1.8224706E-3,-1.12600096E-1,-1.3383014E-2,-2.7547136E-1,6.483344E-2,-1.6658457E-1],"categories":[],"categories_nodes":[],"categories_segments":[],"categories_sizes":[],"default_left":[0,0,0,0,0,0,0,0,0,0,0,0,0,0,0],"id":72,"left_children":[1,3,5,7,9,11,13,-1,-1,-1,-1,-1,-1,-1,-1],"loss_changes":[1.1095635E0,5.3222184E0,5.4275646E0,1.4021875E1,3.9848912E0,1.1836698E1,1.4958264E1,0E0,0E0,0E0,0E0,0E0,0E0,0E0,0E0],"parents":[2147483647,0,0,1,1,2,2,3,3,4,4,5,5,6,6],"right_children":[2,4,6,8,10,12,14,-1,-1,-1,-1,-1,-1,-1,-1],"split_conditions":[1.4526225E5,-8.888649E-1,5.887313E2,1.296424E5,8.858561E1,5.8652637E2,3.0008206E5,-1.14368126E-1,3.8212925E-1,1.8224706E-3,-1.12600096E-1,-1.3383014E-2,-2.7547136E-1,6.483344E-2,-1.6658457E-1],"split_indices":[4,2,0,4,1,0,4,0,0,0,0,0,0,0,0],"split_type":[0,0,0,0,0,0,0,0,0,0,0,0,0,0,0],"sum_hessian":[6.6610776E3,5.4375225E3,1.2235555E3,1.8934317E1,5.418588E3,1.00514246E3,2.1841313E2,8.827057E0,1.0107261E1,5.392055E3,2.6532717E1,9.9038257E2,1.4759846E1,1.9044609E2,2.7967045E1],"tree_param":{"num_deleted":"0","num_feature":"5","num_nodes":"15","size_leaf_vector":"1"}},{"base_weights":[-1.2254345E-4,7.1838563E-3,-1.897221E-2,6.072603E-4,1.7274097E-1,5.165619E-1,-2.946461E-2,2.022995E-3,-5.1049106E-2,1.4058162E-1,-1.04207695E-1,2.885648E-1,-1.8358831E-1,1.0089395E-3,-7.395361E-2],"categories":[],"categories_nodes":[],"categories_segments":[],"categories_sizes":[],"default_left":[0,0,0,0,0,0,0,0,0,0,0,0,0,0,0],"id":73,"left_children":[1,3,5,7,9,11,13,-1,-1,-1,-1,-1,-1,-1,-1],"loss_changes":[9.1712826E-1,5.225111E0,1.0467607E1,4.838803E0,2.8376587E1,1.8579536E1,1.3006947E1,0E0,0E0,0E0,0E0,0E0,0E0,0E0,0E0],"parents":[2147483647,0,0,1,1,2,2,3,3,4,4,5,5,6,6],"right_children":[2,4,6,8,10,12,14,-1,-1,-1,-1,-1,-1,-1,-1],"split_conditions":[6.008714E2,5.9963086E2,-4.5951658E-1,5.9835693E2,8.510553E-2,6.05829E2,8.27727E4,2.022995E-3,-5.1049106E-2,1.4058162E-1,-1.04207695E-1,2.885648E-1,-1.8358831E-1,1.0089395E-3,-7.395361E-2],"split_indices":[0,0,2,0,2,0,4,0,0,0,0,0,0,0,0],"split_type":[0,0,0,0,0,0,0,0,0,0,0,0,0,0,0],"sum_hessian":[6.657224E3,4.7980503E3,1.8591737E3,4.6156997E3,1.8235054E2,3.4798897E1,1.8243748E3,4.4565303E3,1.591693E2,1.1629429E2,6.6056244E1,2.5058393E1,9.740503E0,1.5855498E3,2.3882494E2],"tree_param":{"num_deleted":"0","num_feature":"5","num_nodes":"15","size_leaf_vector":"1"}},{"base_weights":[-1.0867355E-5,-1.1102803E-2,1.6103875E-2,-2.3494922E-2,6.5074705E-2,-2.9770094E-1,2.3511259E-2,-4.2338204E-3,-7.8281246E-2,-8.763104E-3,1.0983868E-1,-1.1773207E-1,3.231419E-1,1.3369584E-2,-2.8210064E-2],"categories":[],"categories_nodes":[],"categories_segments":[],"categories_sizes":[],"default_left":[0,0,0,0,0,0,0,0,0,0,0,0,0,0,0],"id":74,"left_children":[1,3,5,7,9,11,13,-1,-1,-1,-1,-1,-1,-1,-1],"loss_changes":[1.1894705E0,3.722387E0,6.313367E0,7.550188E0,1.5671999E1,8.581354E0,6.5658355E0,0E0,0E0,0E0,0E0,0E0,0E0,0E0,0E0],"parents":[2147483647,0,0,1,1,2,2,3,3,4,4,5,5,6,6],"right_children":[2,4,6,8,10,12,14,-1,-1,-1,-1,-1,-1,-1,-1],"split_conditions":[6.064692E-2,1.7328855E5,2.20691E4,1.525979E5,-2.4015407E-1,1.7617363E-1,1.705304E5,-4.2338204E-3,-7.8281246E-2,-8.763104E-3,1.0983868E-1,-1.1773207E-1,3.231419E-1,1.3369584E-2,-2.8210064E-2],"split_indices":[2,4,4,4,3,2,4,0,0,0,0,0,0,0,0],"split_type":[0,0,0,0,0,0,0,0,0,0,0,0,0,0,0],"sum_hessian":[6.6526157E3,3.940584E3,2.7120315E3,3.3898364E3,5.5074756E2,6.1637646E1,2.6503938E3,3.2620027E3,1.2783372E2,4.2008655E2,1.3066098E2,5.8332546E1,3.3050983E0,2.2483093E3,4.0208466E2],"tree_param":{"num_deleted":"0","num_feature":"5","num_nodes":"15","size_leaf_vector":"1"}},{"base_weights":[8.968988E-6,-1.9344139E-3,8.832598E-2,-4.953527E-5,-2.4413821E-1,6.034319E-1,-2.9731015E-2,-7.507881E-4,5.895998E-2,1.9512425E-1,-1.9673258E-1,2.9433593E-1,-3.4455794E-1,-3.6257908E-2,3.5359228E-1],"categories":[],"categories_nodes":[],"categories_segments":[],"categories_sizes":[],"default_left":[0,0,0,0,0,0,0,0,0,0,0,0,0,0,0],"id":75,"left_children":[1,3,5,7,9,11,13,-1,-1,-1,-1,-1,-1,-1,-1],"loss_changes":[1.141421E0,2.9706612E0,8.725421E0,3.11472E0,1.892964E1,1.8823877E1,1.3074866E1,0E0,0E0,0E0,0E0,0E0,0E0,0E0,0E0],"parents":[2147483647,0,0,1,1,2,2,3,3,4,4,5,5,6,6],"right_children":[2,4,6,8,10,12,14,-1,-1,-1,-1,-1,-1,-1,-1],"split_conditions":[6.1021326E2,6.09982E2,6.1033014E2,6.097516E2,2.362175E4,1.8268494E-1,1.7617363E-1,-7.507881E-4,5.895998E-2,1.9512425E-1,-1.9673258E-1,2.9433593E-1,-3.4455794E-1,-3.6257908E-2,3.5359228E-1],"split_indices":[0,0,0,0,4,3,2,0,0,0,0,0,0,0,0],"split_type":[0,0,0,0,0,0,0,0,0,0,0,0,0,0,0],"sum_hessian":[6.6483335E3,6.506146E3,1.4218723E2,6.4568975E3,4.924867E1,2.5745068E1,1.1644216E2,6.378292E3,7.860532E1,1.5337592E1,3.391108E1,2.1541195E1,4.203872E0,1.0911342E2,7.328745E0],"tree_param":{"num_deleted":"0","num_feature":"5","num_nodes":"15","size_leaf_vector":"1"}},{"base_weights":[2.5758305E-5,2.453291E-2,-6.640083E-3,1.5199952E-1,-3.2607496E-2,-6.413064E-2,5.230751E-3,-1.9503467E-1,5.808332E-2,-1.23955466E-1,-4.889614E-4,-2.6642563E-2,2.2157179E-1,-6.6627436E-3,8.619147E-3],"categories":[],"categories_nodes":[],"categories_segments":[],"categories_sizes":[],"default_left":[0,0,0,0,0,0,0,0,0,0,0,0,0,0,0],"id":76,"left_children":[1,3,5,7,9,11,13,-1,-1,-1,-1,-1,-1,-1,-1],"loss_changes":[1.0858995E0,1.0357759E1,3.5667691E0,1.481642E1,1.1579678E1,1.7783794E1,2.794297E0,0E0,0E0,0E0,0E0,0E0,0E0,0E0,0E0],"parents":[2147483647,0,0,1,1,2,2,3,3,4,4,5,5,6,6],"right_children":[2,4,6,8,10,12,14,-1,-1,-1,-1,-1,-1,-1,-1],"split_conditions":[-2.1360981E-1,8.754895E4,-9.1763504E-2,3.911285E4,9.313015E4,2.262501E5,5.743035E4,-1.9503467E-1,5.808332E-2,-1.23955466E-1,-4.889614E-4,-2.6642563E-2,2.2157179E-1,-6.6627436E-3,8.619147E-3],"split_indices":[3,4,3,4,4,4,4,0,0,0,0,0,0,0,0],"split_type":[0,0,0,0,0,0,0,0,0,0,0,0,0,0,0],"sum_hessian":[6.64525E3,1.4204062E3,5.2248438E3,4.3913675E2,9.812695E2,8.934508E2,4.3313926E3,2.0936462E1,4.182003E2,7.293117E1,9.0833826E2,8.676651E2,2.578569E1,1.9982062E3,2.3331865E3],"tree_param":{"num_deleted":"0","num_feature":"5","num_nodes":"15","size_leaf_vector":"1"}},{"base_weights":[6.681472E-6,6.7780875E-3,-2.487012E-2,5.6149587E-3,6.1680794E-1,-5.358346E-2,6.1920617E-2,-3.8045805E-3,8.179807E-3,-1.8523613E-1,2.877614E-1,1.0450481E-2,-3.713993E-2,4.8374146E-2,-7.162763E-2],"categories":[],"categories_nodes":[],"categories_segments":[],"categories_sizes":[],"default_left":[0,0,0,0,0,0,0,0,0,0,0,0,0,0,0],"id":77,"left_children":[1,3,5,7,9,11,13,-1,-1,-1,-1,-1,-1,-1,-1],"loss_changes":[1.1190487E0,3.7016358E0,3.5454311E0,2.0654137E0,4.7879744E0,6.63838E0,1.0604982E1,0E0,0E0,0E0,0E0,0E0,0E0,0E0,0E0],"parents":[2147483647,0,0,1,1,2,2,3,3,4,4,5,5,6,6],"right_children":[2,4,6,8,10,12,14,-1,-1,-1,-1,-1,-1,-1,-1],"split_conditions":[6.490431E1,2.175742E0,1.199864E5,5.8513727E2,5.1115112E2,5.20666E4,7.378608E-1,-3.8045805E-3,8.179807E-3,-1.8523613E-1,2.877614E-1,1.0450481E-2,-3.713993E-2,4.8374146E-2,-7.162763E-2],"split_indices":[1,3,4,0,0,4,3,0,0,0,0,0,0,0,0],"split_type":[0,0,0,0,0,0,0,0,0,0,0,0,0,0,0],"sum_hessian":[6.6411724E3,5.2208086E3,1.420364E3,5.2118804E3,8.92816E0,1.067561E3,3.5280307E2,2.8249685E3,2.3869119E3,1.7644373E0,7.1637225E0,4.7275638E2,5.948046E2,2.6554617E2,8.725689E1],"tree_param":{"num_deleted":"0","num_feature":"5","num_nodes":"15","size_leaf_vector":"1"}},{"base_weights":[3.6132515E-5,-2.7223749E-3,6.3283496E-2,-1.3919144E-3,-3.1131804E-1,8.476447E-1,4.429169E-2,4.0067342E-4,-2.2176994E-2,-1.3248318E-1,2.4113353E-1,3.3912635E-1,-2.4557857E-2,-1.7354514E-1,2.2629365E-2],"categories":[],"categories_nodes":[],"categories_segments":[],"categories_sizes":[],"default_left":[0,0,0,0,0,0,0,0,0,0,0,0,0,0,0],"id":78,"left_children":[1,3,5,7,9,11,13,-1,-1,-1,-1,-1,-1,-1,-1],"loss_changes":[1.158711E0,2.6123967E0,4.0970473E0,1.2538444E0,4.323431E0,1.8027086E0,5.319467E0,0E0,0E0,0E0,0E0,0E0,0E0,0E0,0E0],"parents":[2147483647,0,0,1,1,2,2,3,3,4,4,5,5,6,6],"right_children":[2,4,6,8,10,12,14,-1,-1,-1,-1,-1,-1,-1,-1],"split_conditions":[6.5586305E-1,6.189273E-1,8.090585E4,4.3992293E-1,7.9169804E-1,7.582891E1,9.852235E4,4.0067342E-4,-2.2176994E-2,-1.3248318E-1,2.4113353E-1,3.3912635E-1,-2.4557857E-2,-1.7354514E-1,2.2629365E-2],"split_indices":[2,2,4,3,3,1,4,0,0,0,0,0,0,0,0],"split_type":[0,0,0,0,0,0,0,0,0,0,0,0,0,0,0],"sum_hessian":[6.639397E3,6.3628413E3,2.7655573E2,6.336527E3,2.6314402E1,5.5064692E0,2.7104926E2,6.1078276E3,2.28699E2,2.4102175E1,2.2122273E0,4.0562963E0,1.4501733E0,1.20703745E1,2.5897888E2],"tree_param":{"num_deleted":"0","num_feature":"5","num_nodes":"15","size_leaf_vector":"1"}},{"base_weights":[7.478207E-5,-4.8259385E-3,4.0426612E-2,-5.866487E-3,5.4313827E-1,1.6256712E-1,-6.129628E-2,5.123314E-4,-1.7780423E-2,-1.9508472E-1,2.8426784E-1,-7.9659164E-2,6.798801E-2,-2.606788E-1,-1.0492781E-2],"categories":[],"categories_nodes":[],"categories_segments":[],"categories_sizes":[],"default_left":[0,0,0,0,0,0,0,0,0,0,0,0,0,0,0],"id":79,"left_children":[1,3,5,7,9,11,13,-1,-1,-1,-1,-1,-1,-1,-1],"loss_changes":[1.3133088E0,3.3797843E0,8.945877E0,2.3912573E0,6.0385847E0,9.030055E0,8.326518E0,0E0,0E0,0E0,0E0,0E0,0E0,0E0,0E0],"parents":[2147483647,0,0,1,1,2,2,3,3,4,4,5,5,6,6],"right_children":[2,4,6,8,10,12,14,-1,-1,-1,-1,-1,-1,-1,-1],"split_conditions":[3.5703945E-1,8.416803E5,1.155764E5,1.9821018E-1,6.9179344E0,5.3908185E2,3.2622375E1,5.123314E-4,-1.7780423E-2,-1.9508472E-1,2.8426784E-1,-7.9659164E-2,6.798801E-2,-2.606788E-1,-1.0492781E-2],"split_indices":[3,4,4,3,1,0,1,0,0,0,0,0,0,0,0],"split_type":[0,0,0,0,0,0,0,0,0,0,0,0,0,0,0],"sum_hessian":[6.63917E3,5.920952E3,7.182179E2,5.9107173E3,1.0234775E1,3.2608438E2,3.9213354E2,5.177351E3,7.3336584E2,2.4365983E0,7.798176E0,4.2034035E1,2.8405035E2,1.1365722E1,3.8076782E2],"tree_param":{"num_deleted":"0","num_feature":"5","num_nodes":"15","size_leaf_vector":"1"}},{"base_weights":[4.0352777E-5,-5.476318E-2,2.9908475E-3,-3.5409153E-1,-1.4815738E-2,8.773152E-2,-6.032895E-4,-2.986998E-1,4.209937E-2,3.905399E-3,-1.466875E-1,-1.6951403E-1,3.314764E-2,-7.863068E-2,1.5035828E-4],"categories":[],"categories_nodes":[],"categories_segments":[],"categories_sizes":[],"default_left":[0,0,0,0,0,0,0,0,0,0,0,0,0,0,0],"id":80,"left_children":[1,3,5,7,9,11,13,-1,-1,-1,-1,-1,-1,-1,-1],"loss_changes":[1.0734074E0,4.0499387E0,1.9186028E0,1.27923355E1,3.9687939E0,3.870552E0,1.7457415E0,0E0,0E0,0E0,0E0,0E0,0E0,0E0,0E0],"parents":[2147483647,0,0,1,1,2,2,3,3,4,4,5,5,6,6],"right_children":[2,4,6,8,10,12,14,-1,-1,-1,-1,-1,-1,-1,-1],"split_conditions":[2.1963541E1,3.87809E4,2.6826216E1,6.031544E2,5.0222494E5,2.6042E4,-1.6040071E0,-2.986998E-1,4.209937E-2,3.905399E-3,-1.466875E-1,-1.6951403E-1,3.314764E-2,-7.863068E-2,1.5035828E-4],"split_indices":[1,4,1,0,4,4,3,0,0,0,0,0,0,0,0],"split_type":[0,0,0,0,0,0,0,0,0,0,0,0,0,0,0],"sum_hessian":[6.6363535E3,3.3813596E2,6.2982173E3,3.8887306E1,